digraph Tree {
node [shape=box, style="filled, rounded", color="black", fontname="helvetica"] ;
edge [fontname="helvetica"] ;
0 [label=<Fwd IAT Mean &le; 32690.941<br/>entropy = 3.267<br/>samples = 100.0%<br/>value = [0.033, 0.062, 0.041, 0.104, 0.134, 0.025, 0.106, 0.021<br/>0.022, 0.161, 0.177, 0.115]<br/>class = Syn>, fillcolor="#fefbfd"] ;
1 [label=<Fwd IAT Total &le; 53.5<br/>entropy = 2.581<br/>samples = 49.0%<br/>value = [0.056, 0.126, 0.083, 0.212, 0.272, 0.029, 0.215, 0.002<br/>0.001, 0.003, 0.0, 0.002]<br/>class = DrDoS_LDAP>, fillcolor="#f0fdf6"] ;
0 -> 1 [labeldistance=2.5, labelangle=45, headlabel="True"] ;
2 [label=<Packet Length Min &le; 1100.5<br/>entropy = 2.25<br/>samples = 31.0%<br/>value = [0.075, 0.125, 0.092, 0.334, 0.005, 0.025, 0.338, 0.0<br/>0.0, 0.003, 0.0, 0.002]<br/>class = DrDoS_MSSQL>, fillcolor="#fefeff"] ;
1 -> 2 ;
3 [label=<Fwd Header Length &le; 795.0<br/>entropy = 1.729<br/>samples = 16.8%<br/>value = [0.138, 0.189, 0.01, 0.595, 0.009, 0.047, 0.002, 0.0<br/>0.0, 0.006, 0.0, 0.004]<br/>class = BENIGN>, fillcolor="#a3f29c"] ;
2 -> 3 ;
4 [label=<Bwd Packets/s &le; 0.017<br/>entropy = 2.215<br/>samples = 5.7%<br/>value = [0.402, 0.279, 0.009, 0.111, 0.027, 0.135, 0.006, 0.0<br/>0.0, 0.018, 0.0, 0.012]<br/>class = DrDoS_SSDP>, fillcolor="#fbe9dd"] ;
3 -> 4 ;
5 [label=<Init Fwd Win Bytes &le; -0.5<br/>entropy = 2.091<br/>samples = 3.4%<br/>value = [0.081, 0.47, 0.014, 0.187, 0.046, 0.19, 0.009, 0.001<br/>0.0, 0.0, 0.0, 0.002]<br/>class = DrDoS_UDP>, fillcolor="#f6f1bb"] ;
4 -> 5 ;
6 [label=<Packet Length Min &le; 398.5<br/>entropy = 1.89<br/>samples = 3.1%<br/>value = [0.01, 0.506, 0.015, 0.202, 0.049, 0.205, 0.01, 0.001<br/>0.0, 0.0, 0.0, 0.001]<br/>class = DrDoS_UDP>, fillcolor="#f5f0b4"] ;
5 -> 6 ;
7 [label=<Fwd Packet Length Std &le; 22.689<br/>entropy = 1.32<br/>samples = 1.8%<br/>value = [0.017, 0.635, 0.0, 0.0, 0.056, 0.286, 0.003, 0.001<br/>0.0, 0.0, 0.0, 0.002]<br/>class = DrDoS_UDP>, fillcolor="#f2eb9e"] ;
6 -> 7 ;
8 [label=<Flow Duration &le; 11.5<br/>entropy = 1.08<br/>samples = 1.7%<br/>value = [0.018, 0.671, 0.0, 0.0, 0.001, 0.303, 0.004, 0.001<br/>0.0, 0.0, 0.0, 0.002]<br/>class = DrDoS_UDP>, fillcolor="#f1ea96"] ;
7 -> 8 ;
9 [label=<Fwd IAT Total &le; 2.5<br/>entropy = 0.89<br/>samples = 1.0%<br/>value = [0.026, 0.811, 0.0, 0.0, 0.001, 0.152, 0.005, 0.001<br/>0.0, 0.0, 0.0, 0.004]<br/>class = DrDoS_UDP>, fillcolor="#ebe065"] ;
8 -> 9 ;
10 [label=<Protocol &le; 8.5<br/>entropy = 0.672<br/>samples = 0.7%<br/>value = [0.014, 0.866, 0.0, 0.0, 0.0, 0.114, 0.001, 0.002, 0.0<br/>0.0, 0.0, 0.003]<br/>class = DrDoS_UDP>, fillcolor="#e9dd57"] ;
9 -> 10 ;
11 [label=<entropy = 0.0<br/>samples = 0.0%<br/>value = [1.0, 0.0, 0.0, 0.0, 0.0, 0.0, 0.0, 0.0, 0.0, 0.0<br/>0.0, 0.0]<br/>class = DrDoS_SSDP>, fillcolor="#e58139"] ;
10 -> 11 ;
12 [label=<Packet Length Min &le; 118.0<br/>entropy = 0.645<br/>samples = 0.7%<br/>value = [0.009, 0.87, 0.0, 0.0, 0.0, 0.115, 0.001, 0.002, 0.0<br/>0.0, 0.0, 0.003]<br/>class = DrDoS_UDP>, fillcolor="#e9dd56"] ;
10 -> 12 ;
13 [label=<Packet Length Min &le; 91.5<br/>entropy = 0.267<br/>samples = 0.2%<br/>value = [0.034, 0.961, 0.0, 0.0, 0.0, 0.003, 0.003, 0.0, 0.0<br/>0.0, 0.0, 0.0]<br/>class = DrDoS_UDP>, fillcolor="#e6d941"] ;
12 -> 13 ;
14 [label=<Fwd IAT Mean &le; 1.5<br/>entropy = 0.292<br/>samples = 0.1%<br/>value = [0.043, 0.953, 0.0, 0.0, 0.0, 0.0, 0.004, 0.0, 0.0<br/>0.0, 0.0, 0.0]<br/>class = DrDoS_UDP>, fillcolor="#e6d943"] ;
13 -> 14 ;
15 [label=<Fwd Header Length &le; 68.0<br/>entropy = 0.299<br/>samples = 0.1%<br/>value = [0.053, 0.947, 0.0, 0.0, 0.0, 0.0, 0.0, 0.0, 0.0, 0.0<br/>0.0, 0.0]<br/>class = DrDoS_UDP>, fillcolor="#e6d944"] ;
14 -> 15 ;
16 [label=<Flow Bytes/s &le; 63000000.0<br/>entropy = 0.351<br/>samples = 0.1%<br/>value = [0.066, 0.934, 0.0, 0.0, 0.0, 0.0, 0.0, 0.0, 0.0, 0.0<br/>0.0, 0.0]<br/>class = DrDoS_UDP>, fillcolor="#e7da47"] ;
15 -> 16 ;
17 [label=<entropy = 0.0<br/>samples = 0.0%<br/>value = [0.0, 1.0, 0.0, 0.0, 0.0, 0.0, 0.0, 0.0, 0.0, 0.0<br/>0.0, 0.0]<br/>class = DrDoS_UDP>, fillcolor="#e5d739"] ;
16 -> 17 ;
18 [label=<Fwd IAT Mean &le; 0.833<br/>entropy = 0.408<br/>samples = 0.0%<br/>value = [0.082, 0.918, 0.0, 0.0, 0.0, 0.0, 0.0, 0.0, 0.0, 0.0<br/>0.0, 0.0]<br/>class = DrDoS_UDP>, fillcolor="#e7db4b"] ;
16 -> 18 ;
19 [label=<entropy = 0.0<br/>samples = 0.0%<br/>value = [0.0, 1.0, 0.0, 0.0, 0.0, 0.0, 0.0, 0.0, 0.0, 0.0<br/>0.0, 0.0]<br/>class = DrDoS_UDP>, fillcolor="#e5d739"] ;
18 -> 19 ;
20 [label=<Packet Length Min &le; 34.5<br/>entropy = 0.411<br/>samples = 0.0%<br/>value = [0.082, 0.918, 0.0, 0.0, 0.0, 0.0, 0.0, 0.0, 0.0, 0.0<br/>0.0, 0.0]<br/>class = DrDoS_UDP>, fillcolor="#e7db4b"] ;
18 -> 20 ;
21 [label=<entropy = 0.0<br/>samples = 0.0%<br/>value = [1.0, 0.0, 0.0, 0.0, 0.0, 0.0, 0.0, 0.0, 0.0, 0.0<br/>0.0, 0.0]<br/>class = DrDoS_SSDP>, fillcolor="#e58139"] ;
20 -> 21 ;
22 [label=<Packet Length Min &le; 90.5<br/>entropy = 0.34<br/>samples = 0.0%<br/>value = [0.063, 0.937, 0.0, 0.0, 0.0, 0.0, 0.0, 0.0, 0.0, 0.0<br/>0.0, 0.0]<br/>class = DrDoS_UDP>, fillcolor="#e7da46"] ;
20 -> 22 ;
23 [label=<Flow Bytes/s &le; 98000000.0<br/>entropy = 0.302<br/>samples = 0.0%<br/>value = [0.054, 0.946, 0.0, 0.0, 0.0, 0.0, 0.0, 0.0, 0.0, 0.0<br/>0.0, 0.0]<br/>class = DrDoS_UDP>, fillcolor="#e6d944"] ;
22 -> 23 ;
24 [label=<entropy = 0.485<br/>samples = 0.0%<br/>value = [0.105, 0.895, 0.0, 0.0, 0.0, 0.0, 0.0, 0.0, 0.0, 0.0<br/>0.0, 0.0]<br/>class = DrDoS_UDP>, fillcolor="#e8dc50"] ;
23 -> 24 ;
25 [label=<entropy = 0.131<br/>samples = 0.0%<br/>value = [0.018, 0.982, 0.0, 0.0, 0.0, 0.0, 0.0, 0.0, 0.0, 0.0<br/>0.0, 0.0]<br/>class = DrDoS_UDP>, fillcolor="#e5d83d"] ;
23 -> 25 ;
26 [label=<entropy = 1.0<br/>samples = 0.0%<br/>value = [0.5, 0.5, 0.0, 0.0, 0.0, 0.0, 0.0, 0.0, 0.0, 0.0<br/>0.0, 0.0]<br/>class = DrDoS_SSDP>, fillcolor="#ffffff"] ;
22 -> 26 ;
27 [label=<entropy = 0.0<br/>samples = 0.0%<br/>value = [0.0, 1.0, 0.0, 0.0, 0.0, 0.0, 0.0, 0.0, 0.0, 0.0<br/>0.0, 0.0]<br/>class = DrDoS_UDP>, fillcolor="#e5d739"] ;
15 -> 27 ;
28 [label=<Fwd Header Length &le; 34.0<br/>entropy = 0.269<br/>samples = 0.1%<br/>value = [0.032, 0.96, 0.0, 0.0, 0.0, 0.0, 0.008, 0.0, 0.0<br/>0.0, 0.0, 0.0]<br/>class = DrDoS_UDP>, fillcolor="#e6d941"] ;
14 -> 28 ;
29 [label=<Fwd Seg Size Min &le; -0.5<br/>entropy = 0.221<br/>samples = 0.0%<br/>value = [0.015, 0.971, 0.0, 0.0, 0.0, 0.0, 0.015, 0.0, 0.0<br/>0.0, 0.0, 0.0]<br/>class = DrDoS_UDP>, fillcolor="#e6d83f"] ;
28 -> 29 ;
30 [label=<Fwd Packet Length Max &le; 34.0<br/>entropy = 0.323<br/>samples = 0.0%<br/>value = [0.059, 0.941, 0.0, 0.0, 0.0, 0.0, 0.0, 0.0, 0.0, 0.0<br/>0.0, 0.0]<br/>class = DrDoS_UDP>, fillcolor="#e7da45"] ;
29 -> 30 ;
31 [label=<entropy = 0.811<br/>samples = 0.0%<br/>value = [0.25, 0.75, 0.0, 0.0, 0.0, 0.0, 0.0, 0.0, 0.0, 0.0<br/>0.0, 0.0]<br/>class = DrDoS_UDP>, fillcolor="#eee47b"] ;
30 -> 31 ;
32 [label=<entropy = 0.0<br/>samples = 0.0%<br/>value = [0.0, 1.0, 0.0, 0.0, 0.0, 0.0, 0.0, 0.0, 0.0, 0.0<br/>0.0, 0.0]<br/>class = DrDoS_UDP>, fillcolor="#e5d739"] ;
30 -> 32 ;
33 [label=<Packet Length Min &le; 90.5<br/>entropy = 0.139<br/>samples = 0.0%<br/>value = [0.0, 0.98, 0.0, 0.0, 0.0, 0.0, 0.02, 0.0, 0.0, 0.0<br/>0.0, 0.0]<br/>class = DrDoS_UDP>, fillcolor="#e6d83d"] ;
29 -> 33 ;
34 [label=<entropy = 0.0<br/>samples = 0.0%<br/>value = [0.0, 1.0, 0.0, 0.0, 0.0, 0.0, 0.0, 0.0, 0.0, 0.0<br/>0.0, 0.0]<br/>class = DrDoS_UDP>, fillcolor="#e5d739"] ;
33 -> 34 ;
35 [label=<entropy = 0.0<br/>samples = 0.0%<br/>value = [0.0, 0.0, 0.0, 0.0, 0.0, 0.0, 1.0, 0.0, 0.0, 0.0<br/>0.0, 0.0]<br/>class = DrDoS_MSSQL>, fillcolor="#399de5"] ;
33 -> 35 ;
36 [label=<Fwd Header Length &le; 68.0<br/>entropy = 0.294<br/>samples = 0.0%<br/>value = [0.052, 0.948, 0.0, 0.0, 0.0, 0.0, 0.0, 0.0, 0.0, 0.0<br/>0.0, 0.0]<br/>class = DrDoS_UDP>, fillcolor="#e6d944"] ;
28 -> 36 ;
37 [label=<Fwd Packet Length Max &le; 48.0<br/>entropy = 0.459<br/>samples = 0.0%<br/>value = [0.097, 0.903, 0.0, 0.0, 0.0, 0.0, 0.0, 0.0, 0.0, 0.0<br/>0.0, 0.0]<br/>class = DrDoS_UDP>, fillcolor="#e8db4e"] ;
36 -> 37 ;
38 [label=<Fwd Header Length &le; 60.0<br/>entropy = 0.65<br/>samples = 0.0%<br/>value = [0.167, 0.833, 0.0, 0.0, 0.0, 0.0, 0.0, 0.0, 0.0, 0.0<br/>0.0, 0.0]<br/>class = DrDoS_UDP>, fillcolor="#eadf61"] ;
37 -> 38 ;
39 [label=<Fwd Header Length &le; 40.5<br/>entropy = 0.439<br/>samples = 0.0%<br/>value = [0.091, 0.909, 0.0, 0.0, 0.0, 0.0, 0.0, 0.0, 0.0, 0.0<br/>0.0, 0.0]<br/>class = DrDoS_UDP>, fillcolor="#e8db4d"] ;
38 -> 39 ;
40 [label=<Avg Packet Size &le; 60.75<br/>entropy = 0.65<br/>samples = 0.0%<br/>value = [0.167, 0.833, 0.0, 0.0, 0.0, 0.0, 0.0, 0.0, 0.0, 0.0<br/>0.0, 0.0]<br/>class = DrDoS_UDP>, fillcolor="#eadf61"] ;
39 -> 40 ;
41 [label=<entropy = 0.0<br/>samples = 0.0%<br/>value = [0.0, 1.0, 0.0, 0.0, 0.0, 0.0, 0.0, 0.0, 0.0, 0.0<br/>0.0, 0.0]<br/>class = DrDoS_UDP>, fillcolor="#e5d739"] ;
40 -> 41 ;
42 [label=<entropy = 0.0<br/>samples = 0.0%<br/>value = [1.0, 0.0, 0.0, 0.0, 0.0, 0.0, 0.0, 0.0, 0.0, 0.0<br/>0.0, 0.0]<br/>class = DrDoS_SSDP>, fillcolor="#e58139"] ;
40 -> 42 ;
43 [label=<entropy = 0.0<br/>samples = 0.0%<br/>value = [0.0, 1.0, 0.0, 0.0, 0.0, 0.0, 0.0, 0.0, 0.0, 0.0<br/>0.0, 0.0]<br/>class = DrDoS_UDP>, fillcolor="#e5d739"] ;
39 -> 43 ;
44 [label=<Packet Length Min &le; 42.5<br/>entropy = 0.863<br/>samples = 0.0%<br/>value = [0.286, 0.714, 0.0, 0.0, 0.0, 0.0, 0.0, 0.0, 0.0, 0.0<br/>0.0, 0.0]<br/>class = DrDoS_UDP>, fillcolor="#efe788"] ;
38 -> 44 ;
45 [label=<Packet Length Min &le; 33.5<br/>entropy = 0.65<br/>samples = 0.0%<br/>value = [0.167, 0.833, 0.0, 0.0, 0.0, 0.0, 0.0, 0.0, 0.0, 0.0<br/>0.0, 0.0]<br/>class = DrDoS_UDP>, fillcolor="#eadf61"] ;
44 -> 45 ;
46 [label=<entropy = 0.918<br/>samples = 0.0%<br/>value = [0.333, 0.667, 0.0, 0.0, 0.0, 0.0, 0.0, 0.0, 0.0, 0.0<br/>0.0, 0.0]<br/>class = DrDoS_UDP>, fillcolor="#f2eb9c"] ;
45 -> 46 ;
47 [label=<entropy = 0.0<br/>samples = 0.0%<br/>value = [0.0, 1.0, 0.0, 0.0, 0.0, 0.0, 0.0, 0.0, 0.0, 0.0<br/>0.0, 0.0]<br/>class = DrDoS_UDP>, fillcolor="#e5d739"] ;
45 -> 47 ;
48 [label=<entropy = 0.0<br/>samples = 0.0%<br/>value = [1.0, 0.0, 0.0, 0.0, 0.0, 0.0, 0.0, 0.0, 0.0, 0.0<br/>0.0, 0.0]<br/>class = DrDoS_SSDP>, fillcolor="#e58139"] ;
44 -> 48 ;
49 [label=<entropy = 0.0<br/>samples = 0.0%<br/>value = [0.0, 1.0, 0.0, 0.0, 0.0, 0.0, 0.0, 0.0, 0.0, 0.0<br/>0.0, 0.0]<br/>class = DrDoS_UDP>, fillcolor="#e5d739"] ;
37 -> 49 ;
50 [label=<entropy = 0.0<br/>samples = 0.0%<br/>value = [0.0, 1.0, 0.0, 0.0, 0.0, 0.0, 0.0, 0.0, 0.0, 0.0<br/>0.0, 0.0]<br/>class = DrDoS_UDP>, fillcolor="#e5d739"] ;
36 -> 50 ;
51 [label=<Fwd Seg Size Min &le; 11.0<br/>entropy = 0.097<br/>samples = 0.0%<br/>value = [0.0, 0.988, 0.0, 0.0, 0.0, 0.012, 0.0, 0.0, 0.0, 0.0<br/>0.0, 0.0]<br/>class = DrDoS_UDP>, fillcolor="#e5d83c"] ;
13 -> 51 ;
52 [label=<entropy = 0.0<br/>samples = 0.0%<br/>value = [0.0, 1.0, 0.0, 0.0, 0.0, 0.0, 0.0, 0.0, 0.0, 0.0<br/>0.0, 0.0]<br/>class = DrDoS_UDP>, fillcolor="#e5d739"] ;
51 -> 52 ;
53 [label=<Fwd Header Length &le; 34.0<br/>entropy = 0.191<br/>samples = 0.0%<br/>value = [0.0, 0.971, 0.0, 0.0, 0.0, 0.029, 0.0, 0.0, 0.0, 0.0<br/>0.0, 0.0]<br/>class = DrDoS_UDP>, fillcolor="#e6d83f"] ;
51 -> 53 ;
54 [label=<Flow Duration &le; 1.5<br/>entropy = 0.414<br/>samples = 0.0%<br/>value = [0.0, 0.917, 0.0, 0.0, 0.0, 0.083, 0.0, 0.0, 0.0, 0.0<br/>0.0, 0.0]<br/>class = DrDoS_UDP>, fillcolor="#e7db4b"] ;
53 -> 54 ;
55 [label=<entropy = 0.0<br/>samples = 0.0%<br/>value = [0.0, 1.0, 0.0, 0.0, 0.0, 0.0, 0.0, 0.0, 0.0, 0.0<br/>0.0, 0.0]<br/>class = DrDoS_UDP>, fillcolor="#e5d739"] ;
54 -> 55 ;
56 [label=<Avg Packet Size &le; 153.75<br/>entropy = 0.592<br/>samples = 0.0%<br/>value = [0.0, 0.857, 0.0, 0.0, 0.0, 0.143, 0.0, 0.0, 0.0, 0.0<br/>0.0, 0.0]<br/>class = DrDoS_UDP>, fillcolor="#e9de5a"] ;
54 -> 56 ;
57 [label=<entropy = 1.0<br/>samples = 0.0%<br/>value = [0.0, 0.5, 0.0, 0.0, 0.0, 0.5, 0.0, 0.0, 0.0, 0.0<br/>0.0, 0.0]<br/>class = DrDoS_UDP>, fillcolor="#ffffff"] ;
56 -> 57 ;
58 [label=<entropy = 0.0<br/>samples = 0.0%<br/>value = [0.0, 1.0, 0.0, 0.0, 0.0, 0.0, 0.0, 0.0, 0.0, 0.0<br/>0.0, 0.0]<br/>class = DrDoS_UDP>, fillcolor="#e5d739"] ;
56 -> 58 ;
59 [label=<entropy = 0.0<br/>samples = 0.0%<br/>value = [0.0, 1.0, 0.0, 0.0, 0.0, 0.0, 0.0, 0.0, 0.0, 0.0<br/>0.0, 0.0]<br/>class = DrDoS_UDP>, fillcolor="#e5d739"] ;
53 -> 59 ;
60 [label=<Fwd Seg Size Min &le; -531359488.5<br/>entropy = 0.688<br/>samples = 0.5%<br/>value = [0.002, 0.842, 0.0, 0.0, 0.0, 0.15, 0.0, 0.003, 0.0<br/>0.0, 0.0, 0.004]<br/>class = DrDoS_UDP>, fillcolor="#eade5e"] ;
12 -> 60 ;
61 [label=<Avg Packet Size &le; 270.0<br/>entropy = 0.503<br/>samples = 0.0%<br/>value = [0.0, 0.111, 0.0, 0.0, 0.0, 0.889, 0.0, 0.0, 0.0, 0.0<br/>0.0, 0.0]<br/>class = DrDoS_DNS>, fillcolor="#52e8dc"] ;
60 -> 61 ;
62 [label=<entropy = 0.0<br/>samples = 0.0%<br/>value = [0.0, 1.0, 0.0, 0.0, 0.0, 0.0, 0.0, 0.0, 0.0, 0.0<br/>0.0, 0.0]<br/>class = DrDoS_UDP>, fillcolor="#e5d739"] ;
61 -> 62 ;
63 [label=<entropy = 0.0<br/>samples = 0.0%<br/>value = [0.0, 0.0, 0.0, 0.0, 0.0, 1.0, 0.0, 0.0, 0.0, 0.0<br/>0.0, 0.0]<br/>class = DrDoS_DNS>, fillcolor="#39e5d7"] ;
61 -> 63 ;
64 [label=<Fwd IAT Min &le; 1.5<br/>entropy = 0.659<br/>samples = 0.5%<br/>value = [0.002, 0.854, 0.0, 0.0, 0.0, 0.138, 0.0, 0.003, 0.0<br/>0.0, 0.0, 0.004]<br/>class = DrDoS_UDP>, fillcolor="#e9de5b"] ;
60 -> 64 ;
65 [label=<Flow IAT Mean &le; 0.833<br/>entropy = 0.701<br/>samples = 0.3%<br/>value = [0.003, 0.827, 0.0, 0.0, 0.0, 0.168, 0.0, 0.002, 0.0<br/>0.0, 0.0, 0.0]<br/>class = DrDoS_UDP>, fillcolor="#eadf62"] ;
64 -> 65 ;
66 [label=<entropy = 0.0<br/>samples = 0.0%<br/>value = [0.0, 0.0, 0.0, 0.0, 0.0, 1.0, 0.0, 0.0, 0.0, 0.0<br/>0.0, 0.0]<br/>class = DrDoS_DNS>, fillcolor="#39e5d7"] ;
65 -> 66 ;
67 [label=<Flow Bytes/s &le; 534000000.0<br/>entropy = 0.695<br/>samples = 0.3%<br/>value = [0.003, 0.83, 0.0, 0.0, 0.0, 0.165, 0.0, 0.002, 0.0<br/>0.0, 0.0, 0.0]<br/>class = DrDoS_UDP>, fillcolor="#eadf61"] ;
65 -> 67 ;
68 [label=<Packet Length Min &le; 190.5<br/>entropy = 0.86<br/>samples = 0.1%<br/>value = [0.003, 0.735, 0.0, 0.0, 0.0, 0.262, 0.0, 0.0, 0.0<br/>0.0, 0.0, 0.0]<br/>class = DrDoS_UDP>, fillcolor="#eee580"] ;
67 -> 68 ;
69 [label=<Flow Bytes/s &le; 279000000.0<br/>entropy = 0.456<br/>samples = 0.1%<br/>value = [0.0, 0.904, 0.0, 0.0, 0.0, 0.096, 0.0, 0.0, 0.0, 0.0<br/>0.0, 0.0]<br/>class = DrDoS_UDP>, fillcolor="#e8db4e"] ;
68 -> 69 ;
70 [label=<Fwd Packet Length Max &le; 135.0<br/>entropy = 0.894<br/>samples = 0.0%<br/>value = [0.0, 0.69, 0.0, 0.0, 0.0, 0.31, 0.0, 0.0, 0.0, 0.0<br/>0.0, 0.0]<br/>class = DrDoS_UDP>, fillcolor="#f1e992"] ;
69 -> 70 ;
71 [label=<Avg Packet Size &le; 182.25<br/>entropy = 0.722<br/>samples = 0.0%<br/>value = [0.0, 0.8, 0.0, 0.0, 0.0, 0.2, 0.0, 0.0, 0.0, 0.0<br/>0.0, 0.0]<br/>class = DrDoS_UDP>, fillcolor="#ece16a"] ;
70 -> 71 ;
72 [label=<entropy = 0.954<br/>samples = 0.0%<br/>value = [0.0, 0.375, 0.0, 0.0, 0.0, 0.625, 0.0, 0.0, 0.0, 0.0<br/>0.0, 0.0]<br/>class = DrDoS_DNS>, fillcolor="#b0f5ef"] ;
71 -> 72 ;
73 [label=<entropy = 0.0<br/>samples = 0.0%<br/>value = [0.0, 1.0, 0.0, 0.0, 0.0, 0.0, 0.0, 0.0, 0.0, 0.0<br/>0.0, 0.0]<br/>class = DrDoS_UDP>, fillcolor="#e5d739"] ;
71 -> 73 ;
74 [label=<entropy = 0.0<br/>samples = 0.0%<br/>value = [0.0, 0.0, 0.0, 0.0, 0.0, 1.0, 0.0, 0.0, 0.0, 0.0<br/>0.0, 0.0]<br/>class = DrDoS_DNS>, fillcolor="#39e5d7"] ;
70 -> 74 ;
75 [label=<Flow Bytes/s &le; 354000000.0<br/>entropy = 0.201<br/>samples = 0.0%<br/>value = [0.0, 0.969, 0.0, 0.0, 0.0, 0.031, 0.0, 0.0, 0.0, 0.0<br/>0.0, 0.0]<br/>class = DrDoS_UDP>, fillcolor="#e6d83f"] ;
69 -> 75 ;
76 [label=<Avg Packet Size &le; 262.5<br/>entropy = 0.283<br/>samples = 0.0%<br/>value = [0.0, 0.951, 0.0, 0.0, 0.0, 0.049, 0.0, 0.0, 0.0, 0.0<br/>0.0, 0.0]<br/>class = DrDoS_UDP>, fillcolor="#e6d943"] ;
75 -> 76 ;
77 [label=<entropy = 0.211<br/>samples = 0.0%<br/>value = [0.0, 0.967, 0.0, 0.0, 0.0, 0.033, 0.0, 0.0, 0.0, 0.0<br/>0.0, 0.0]<br/>class = DrDoS_UDP>, fillcolor="#e6d840"] ;
76 -> 77 ;
78 [label=<entropy = 0.0<br/>samples = 0.0%<br/>value = [0.0, 0.0, 0.0, 0.0, 0.0, 1.0, 0.0, 0.0, 0.0, 0.0<br/>0.0, 0.0]<br/>class = DrDoS_DNS>, fillcolor="#39e5d7"] ;
76 -> 78 ;
79 [label=<entropy = 0.0<br/>samples = 0.0%<br/>value = [0.0, 1.0, 0.0, 0.0, 0.0, 0.0, 0.0, 0.0, 0.0, 0.0<br/>0.0, 0.0]<br/>class = DrDoS_UDP>, fillcolor="#e5d739"] ;
75 -> 79 ;
80 [label=<Fwd Header Length &le; 77.0<br/>entropy = 1.006<br/>samples = 0.1%<br/>value = [0.006, 0.613, 0.0, 0.0, 0.0, 0.382, 0.0, 0.0, 0.0<br/>0.0, 0.0, 0.0]<br/>class = DrDoS_UDP>, fillcolor="#f5f0b5"] ;
68 -> 80 ;
81 [label=<Fwd Seg Size Min &le; -0.5<br/>entropy = 0.92<br/>samples = 0.1%<br/>value = [0.007, 0.708, 0.0, 0.0, 0.0, 0.285, 0.0, 0.0, 0.0<br/>0.0, 0.0, 0.0]<br/>class = DrDoS_UDP>, fillcolor="#f0e78a"] ;
80 -> 81 ;
82 [label=<Avg Packet Size &le; 291.0<br/>entropy = 0.669<br/>samples = 0.0%<br/>value = [0.062, 0.875, 0.0, 0.0, 0.0, 0.062, 0.0, 0.0, 0.0<br/>0.0, 0.0, 0.0]<br/>class = DrDoS_UDP>, fillcolor="#e8dc53"] ;
81 -> 82 ;
83 [label=<entropy = 0.0<br/>samples = 0.0%<br/>value = [0.0, 0.0, 0.0, 0.0, 0.0, 1.0, 0.0, 0.0, 0.0, 0.0<br/>0.0, 0.0]<br/>class = DrDoS_DNS>, fillcolor="#39e5d7"] ;
82 -> 83 ;
84 [label=<entropy = 0.353<br/>samples = 0.0%<br/>value = [0.067, 0.933, 0.0, 0.0, 0.0, 0.0, 0.0, 0.0, 0.0, 0.0<br/>0.0, 0.0]<br/>class = DrDoS_UDP>, fillcolor="#e7da47"] ;
82 -> 84 ;
85 [label=<Avg Packet Size &le; 345.0<br/>entropy = 0.898<br/>samples = 0.1%<br/>value = [0.0, 0.686, 0.0, 0.0, 0.0, 0.314, 0.0, 0.0, 0.0, 0.0<br/>0.0, 0.0]<br/>class = DrDoS_UDP>, fillcolor="#f1e994"] ;
81 -> 85 ;
86 [label=<entropy = 0.995<br/>samples = 0.0%<br/>value = [0.0, 0.541, 0.0, 0.0, 0.0, 0.459, 0.0, 0.0, 0.0, 0.0<br/>0.0, 0.0]<br/>class = DrDoS_UDP>, fillcolor="#fbf9e1"] ;
85 -> 86 ;
87 [label=<entropy = 0.65<br/>samples = 0.0%<br/>value = [0.0, 0.833, 0.0, 0.0, 0.0, 0.167, 0.0, 0.0, 0.0, 0.0<br/>0.0, 0.0]<br/>class = DrDoS_UDP>, fillcolor="#eadf61"] ;
85 -> 87 ;
88 [label=<Flow Bytes/s &le; 466000000.0<br/>entropy = 0.811<br/>samples = 0.0%<br/>value = [0.0, 0.25, 0.0, 0.0, 0.0, 0.75, 0.0, 0.0, 0.0, 0.0<br/>0.0, 0.0]<br/>class = DrDoS_DNS>, fillcolor="#7beee4"] ;
80 -> 88 ;
89 [label=<Fwd Header Length &le; 205.5<br/>entropy = 0.454<br/>samples = 0.0%<br/>value = [0.0, 0.095, 0.0, 0.0, 0.0, 0.905, 0.0, 0.0, 0.0, 0.0<br/>0.0, 0.0]<br/>class = DrDoS_DNS>, fillcolor="#4ee8db"] ;
88 -> 89 ;
90 [label=<entropy = 0.971<br/>samples = 0.0%<br/>value = [0.0, 0.4, 0.0, 0.0, 0.0, 0.6, 0.0, 0.0, 0.0, 0.0<br/>0.0, 0.0]<br/>class = DrDoS_DNS>, fillcolor="#bdf6f2"] ;
89 -> 90 ;
91 [label=<entropy = 0.0<br/>samples = 0.0%<br/>value = [0.0, 0.0, 0.0, 0.0, 0.0, 1.0, 0.0, 0.0, 0.0, 0.0<br/>0.0, 0.0]<br/>class = DrDoS_DNS>, fillcolor="#39e5d7"] ;
89 -> 91 ;
92 [label=<Fwd Header Length &le; 563.0<br/>entropy = 0.997<br/>samples = 0.0%<br/>value = [0.0, 0.467, 0.0, 0.0, 0.0, 0.533, 0.0, 0.0, 0.0, 0.0<br/>0.0, 0.0]<br/>class = DrDoS_DNS>, fillcolor="#e6fcfa"] ;
88 -> 92 ;
93 [label=<entropy = 0.961<br/>samples = 0.0%<br/>value = [0.0, 0.385, 0.0, 0.0, 0.0, 0.615, 0.0, 0.0, 0.0, 0.0<br/>0.0, 0.0]<br/>class = DrDoS_DNS>, fillcolor="#b5f5f0"] ;
92 -> 93 ;
94 [label=<entropy = 0.0<br/>samples = 0.0%<br/>value = [0.0, 1.0, 0.0, 0.0, 0.0, 0.0, 0.0, 0.0, 0.0, 0.0<br/>0.0, 0.0]<br/>class = DrDoS_UDP>, fillcolor="#e5d739"] ;
92 -> 94 ;
95 [label=<Fwd Packet Length Max &le; 374.0<br/>entropy = 0.42<br/>samples = 0.1%<br/>value = [0.003, 0.926, 0.0, 0.0, 0.0, 0.067, 0.0, 0.003, 0.0<br/>0.0, 0.0, 0.0]<br/>class = DrDoS_UDP>, fillcolor="#e7da49"] ;
67 -> 95 ;
96 [label=<Fwd Packet Length Max &le; 372.5<br/>entropy = 0.459<br/>samples = 0.1%<br/>value = [0.004, 0.911, 0.0, 0.0, 0.0, 0.085, 0.0, 0.0, 0.0<br/>0.0, 0.0, 0.0]<br/>class = DrDoS_UDP>, fillcolor="#e8db4c"] ;
95 -> 96 ;
97 [label=<Fwd Header Length &le; 410.0<br/>entropy = 0.388<br/>samples = 0.1%<br/>value = [0.004, 0.93, 0.0, 0.0, 0.0, 0.065, 0.0, 0.0, 0.0<br/>0.0, 0.0, 0.0]<br/>class = DrDoS_UDP>, fillcolor="#e7da48"] ;
96 -> 97 ;
98 [label=<Fwd Packet Length Max &le; 338.0<br/>entropy = 0.238<br/>samples = 0.1%<br/>value = [0.005, 0.965, 0.0, 0.0, 0.0, 0.03, 0.0, 0.0, 0.0<br/>0.0, 0.0, 0.0]<br/>class = DrDoS_UDP>, fillcolor="#e6d840"] ;
97 -> 98 ;
99 [label=<entropy = 0.314<br/>samples = 0.1%<br/>value = [0.007, 0.95, 0.0, 0.0, 0.0, 0.043, 0.0, 0.0, 0.0<br/>0.0, 0.0, 0.0]<br/>class = DrDoS_UDP>, fillcolor="#e6d943"] ;
98 -> 99 ;
100 [label=<entropy = 0.0<br/>samples = 0.0%<br/>value = [0.0, 1.0, 0.0, 0.0, 0.0, 0.0, 0.0, 0.0, 0.0, 0.0<br/>0.0, 0.0]<br/>class = DrDoS_UDP>, fillcolor="#e5d739"] ;
98 -> 100 ;
101 [label=<Avg Packet Size &le; 534.0<br/>entropy = 0.906<br/>samples = 0.0%<br/>value = [0.0, 0.679, 0.0, 0.0, 0.0, 0.321, 0.0, 0.0, 0.0, 0.0<br/>0.0, 0.0]<br/>class = DrDoS_UDP>, fillcolor="#f1ea97"] ;
97 -> 101 ;
102 [label=<entropy = 0.976<br/>samples = 0.0%<br/>value = [0.0, 0.591, 0.0, 0.0, 0.0, 0.409, 0.0, 0.0, 0.0, 0.0<br/>0.0, 0.0]<br/>class = DrDoS_UDP>, fillcolor="#f7f3c2"] ;
101 -> 102 ;
103 [label=<entropy = 0.0<br/>samples = 0.0%<br/>value = [0.0, 1.0, 0.0, 0.0, 0.0, 0.0, 0.0, 0.0, 0.0, 0.0<br/>0.0, 0.0]<br/>class = DrDoS_UDP>, fillcolor="#e5d739"] ;
101 -> 103 ;
104 [label=<entropy = 0.0<br/>samples = 0.0%<br/>value = [0.0, 0.0, 0.0, 0.0, 0.0, 1.0, 0.0, 0.0, 0.0, 0.0<br/>0.0, 0.0]<br/>class = DrDoS_DNS>, fillcolor="#39e5d7"] ;
96 -> 104 ;
105 [label=<Avg Packet Size &le; 563.25<br/>entropy = 0.119<br/>samples = 0.0%<br/>value = [0.0, 0.984, 0.0, 0.0, 0.0, 0.0, 0.0, 0.016, 0.0, 0.0<br/>0.0, 0.0]<br/>class = DrDoS_UDP>, fillcolor="#e5d83c"] ;
95 -> 105 ;
106 [label=<entropy = 0.0<br/>samples = 0.0%<br/>value = [0.0, 0.0, 0.0, 0.0, 0.0, 0.0, 0.0, 1.0, 0.0, 0.0<br/>0.0, 0.0]<br/>class = DrDoS_SNMP>, fillcolor="#3947e5"] ;
105 -> 106 ;
107 [label=<entropy = 0.0<br/>samples = 0.0%<br/>value = [0.0, 1.0, 0.0, 0.0, 0.0, 0.0, 0.0, 0.0, 0.0, 0.0<br/>0.0, 0.0]<br/>class = DrDoS_UDP>, fillcolor="#e5d739"] ;
105 -> 107 ;
108 [label=<Fwd Seg Size Min &le; 19.5<br/>entropy = 0.583<br/>samples = 0.2%<br/>value = [0.0, 0.884, 0.0, 0.0, 0.0, 0.104, 0.0, 0.004, 0.0<br/>0.0, 0.0, 0.008]<br/>class = DrDoS_UDP>, fillcolor="#e8dc53"] ;
64 -> 108 ;
109 [label=<Fwd Packet Length Max &le; 284.5<br/>entropy = 0.34<br/>samples = 0.1%<br/>value = [0.0, 0.942, 0.0, 0.0, 0.0, 0.055, 0.0, 0.0, 0.0, 0.0<br/>0.0, 0.003]<br/>class = DrDoS_UDP>, fillcolor="#e7d945"] ;
108 -> 109 ;
110 [label=<Flow Bytes/s &le; 282500000.0<br/>entropy = 0.434<br/>samples = 0.1%<br/>value = [0.0, 0.911, 0.0, 0.0, 0.0, 0.089, 0.0, 0.0, 0.0, 0.0<br/>0.0, 0.0]<br/>class = DrDoS_UDP>, fillcolor="#e8db4c"] ;
109 -> 110 ;
111 [label=<Fwd Packet Length Max &le; 230.0<br/>entropy = 0.396<br/>samples = 0.1%<br/>value = [0.0, 0.922, 0.0, 0.0, 0.0, 0.078, 0.0, 0.0, 0.0, 0.0<br/>0.0, 0.0]<br/>class = DrDoS_UDP>, fillcolor="#e7da4a"] ;
110 -> 111 ;
112 [label=<Avg Packet Size &le; 314.25<br/>entropy = 0.487<br/>samples = 0.1%<br/>value = [0.0, 0.894, 0.0, 0.0, 0.0, 0.106, 0.0, 0.0, 0.0, 0.0<br/>0.0, 0.0]<br/>class = DrDoS_UDP>, fillcolor="#e8dc50"] ;
111 -> 112 ;
113 [label=<Flow Bytes/s &le; 121500000.0<br/>entropy = 0.284<br/>samples = 0.0%<br/>value = [0.0, 0.95, 0.0, 0.0, 0.0, 0.05, 0.0, 0.0, 0.0, 0.0<br/>0.0, 0.0]<br/>class = DrDoS_UDP>, fillcolor="#e6d943"] ;
112 -> 113 ;
114 [label=<entropy = 0.918<br/>samples = 0.0%<br/>value = [0.0, 0.333, 0.0, 0.0, 0.0, 0.667, 0.0, 0.0, 0.0, 0.0<br/>0.0, 0.0]<br/>class = DrDoS_DNS>, fillcolor="#9cf2eb"] ;
113 -> 114 ;
115 [label=<entropy = 0.197<br/>samples = 0.0%<br/>value = [0.0, 0.969, 0.0, 0.0, 0.0, 0.031, 0.0, 0.0, 0.0, 0.0<br/>0.0, 0.0]<br/>class = DrDoS_UDP>, fillcolor="#e6d83f"] ;
113 -> 115 ;
116 [label=<Fwd Header Length &le; 30.0<br/>entropy = 0.946<br/>samples = 0.0%<br/>value = [0.0, 0.636, 0.0, 0.0, 0.0, 0.364, 0.0, 0.0, 0.0, 0.0<br/>0.0, 0.0]<br/>class = DrDoS_UDP>, fillcolor="#f4eeaa"] ;
112 -> 116 ;
117 [label=<entropy = 0.544<br/>samples = 0.0%<br/>value = [0.0, 0.875, 0.0, 0.0, 0.0, 0.125, 0.0, 0.0, 0.0, 0.0<br/>0.0, 0.0]<br/>class = DrDoS_UDP>, fillcolor="#e9dd55"] ;
116 -> 117 ;
118 [label=<entropy = 0.0<br/>samples = 0.0%<br/>value = [0.0, 0.0, 0.0, 0.0, 0.0, 1.0, 0.0, 0.0, 0.0, 0.0<br/>0.0, 0.0]<br/>class = DrDoS_DNS>, fillcolor="#39e5d7"] ;
116 -> 118 ;
119 [label=<entropy = 0.0<br/>samples = 0.0%<br/>value = [0.0, 1.0, 0.0, 0.0, 0.0, 0.0, 0.0, 0.0, 0.0, 0.0<br/>0.0, 0.0]<br/>class = DrDoS_UDP>, fillcolor="#e5d739"] ;
111 -> 119 ;
120 [label=<entropy = 0.0<br/>samples = 0.0%<br/>value = [0.0, 0.0, 0.0, 0.0, 0.0, 1.0, 0.0, 0.0, 0.0, 0.0<br/>0.0, 0.0]<br/>class = DrDoS_DNS>, fillcolor="#39e5d7"] ;
110 -> 120 ;
121 [label=<Fwd Header Length &le; -1.0<br/>entropy = 0.136<br/>samples = 0.1%<br/>value = [0.0, 0.984, 0.0, 0.0, 0.0, 0.008, 0.0, 0.0, 0.0, 0.0<br/>0.0, 0.008]<br/>class = DrDoS_UDP>, fillcolor="#e5d83c"] ;
109 -> 121 ;
122 [label=<Fwd Packet Length Max &le; 321.0<br/>entropy = 0.216<br/>samples = 0.0%<br/>value = [0.0, 0.966, 0.0, 0.0, 0.0, 0.034, 0.0, 0.0, 0.0, 0.0<br/>0.0, 0.0]<br/>class = DrDoS_UDP>, fillcolor="#e6d840"] ;
121 -> 122 ;
123 [label=<Packet Length Min &le; 318.5<br/>entropy = 0.439<br/>samples = 0.0%<br/>value = [0.0, 0.909, 0.0, 0.0, 0.0, 0.091, 0.0, 0.0, 0.0, 0.0<br/>0.0, 0.0]<br/>class = DrDoS_UDP>, fillcolor="#e8db4d"] ;
122 -> 123 ;
124 [label=<entropy = 0.0<br/>samples = 0.0%<br/>value = [0.0, 1.0, 0.0, 0.0, 0.0, 0.0, 0.0, 0.0, 0.0, 0.0<br/>0.0, 0.0]<br/>class = DrDoS_UDP>, fillcolor="#e5d739"] ;
123 -> 124 ;
125 [label=<entropy = 0.0<br/>samples = 0.0%<br/>value = [0.0, 0.0, 0.0, 0.0, 0.0, 1.0, 0.0, 0.0, 0.0, 0.0<br/>0.0, 0.0]<br/>class = DrDoS_DNS>, fillcolor="#39e5d7"] ;
123 -> 125 ;
126 [label=<entropy = 0.0<br/>samples = 0.0%<br/>value = [0.0, 1.0, 0.0, 0.0, 0.0, 0.0, 0.0, 0.0, 0.0, 0.0<br/>0.0, 0.0]<br/>class = DrDoS_UDP>, fillcolor="#e5d739"] ;
122 -> 126 ;
127 [label=<Fwd Header Length &le; 18.0<br/>entropy = 0.085<br/>samples = 0.0%<br/>value = [0.0, 0.989, 0.0, 0.0, 0.0, 0.0, 0.0, 0.0, 0.0, 0.0<br/>0.0, 0.011]<br/>class = DrDoS_UDP>, fillcolor="#e5d73b"] ;
121 -> 127 ;
128 [label=<Packet Length Min &le; 377.0<br/>entropy = 0.124<br/>samples = 0.0%<br/>value = [0.0, 0.983, 0.0, 0.0, 0.0, 0.0, 0.0, 0.0, 0.0, 0.0<br/>0.0, 0.017]<br/>class = DrDoS_UDP>, fillcolor="#e5d83c"] ;
127 -> 128 ;
129 [label=<entropy = 0.0<br/>samples = 0.0%<br/>value = [0.0, 1.0, 0.0, 0.0, 0.0, 0.0, 0.0, 0.0, 0.0, 0.0<br/>0.0, 0.0]<br/>class = DrDoS_UDP>, fillcolor="#e5d739"] ;
128 -> 129 ;
130 [label=<Avg Packet Size &le; 570.0<br/>entropy = 0.65<br/>samples = 0.0%<br/>value = [0.0, 0.833, 0.0, 0.0, 0.0, 0.0, 0.0, 0.0, 0.0, 0.0<br/>0.0, 0.167]<br/>class = DrDoS_UDP>, fillcolor="#eadf61"] ;
128 -> 130 ;
131 [label=<entropy = 0.0<br/>samples = 0.0%<br/>value = [0.0, 0.0, 0.0, 0.0, 0.0, 0.0, 0.0, 0.0, 0.0, 0.0<br/>0.0, 1.0]<br/>class = TFTP>, fillcolor="#e53947"] ;
130 -> 131 ;
132 [label=<entropy = 0.0<br/>samples = 0.0%<br/>value = [0.0, 1.0, 0.0, 0.0, 0.0, 0.0, 0.0, 0.0, 0.0, 0.0<br/>0.0, 0.0]<br/>class = DrDoS_UDP>, fillcolor="#e5d739"] ;
130 -> 132 ;
133 [label=<entropy = 0.0<br/>samples = 0.0%<br/>value = [0.0, 1.0, 0.0, 0.0, 0.0, 0.0, 0.0, 0.0, 0.0, 0.0<br/>0.0, 0.0]<br/>class = DrDoS_UDP>, fillcolor="#e5d739"] ;
127 -> 133 ;
134 [label=<Fwd Seg Size Min &le; 268.5<br/>entropy = 0.831<br/>samples = 0.1%<br/>value = [0.0, 0.807, 0.0, 0.0, 0.0, 0.17, 0.0, 0.009, 0.0<br/>0.0, 0.0, 0.014]<br/>class = DrDoS_UDP>, fillcolor="#ebe067"] ;
108 -> 134 ;
135 [label=<Fwd Seg Size Min &le; 206.5<br/>entropy = 0.826<br/>samples = 0.1%<br/>value = [0.0, 0.788, 0.0, 0.0, 0.0, 0.196, 0.0, 0.0, 0.0, 0.0<br/>0.0, 0.016]<br/>class = DrDoS_UDP>, fillcolor="#ece26d"] ;
134 -> 135 ;
136 [label=<Flow Bytes/s &le; 377000000.0<br/>entropy = 0.727<br/>samples = 0.1%<br/>value = [0.0, 0.834, 0.0, 0.0, 0.0, 0.149, 0.0, 0.0, 0.0, 0.0<br/>0.0, 0.017]<br/>class = DrDoS_UDP>, fillcolor="#eadf60"] ;
135 -> 136 ;
137 [label=<Fwd Seg Size Min &le; 61.0<br/>entropy = 0.611<br/>samples = 0.1%<br/>value = [0.0, 0.849, 0.0, 0.0, 0.0, 0.151, 0.0, 0.0, 0.0, 0.0<br/>0.0, 0.0]<br/>class = DrDoS_UDP>, fillcolor="#eade5c"] ;
136 -> 137 ;
138 [label=<Flow Bytes/s &le; 268500000.0<br/>entropy = 0.706<br/>samples = 0.1%<br/>value = [0.0, 0.808, 0.0, 0.0, 0.0, 0.192, 0.0, 0.0, 0.0, 0.0<br/>0.0, 0.0]<br/>class = DrDoS_UDP>, fillcolor="#ebe168"] ;
137 -> 138 ;
139 [label=<entropy = 0.85<br/>samples = 0.0%<br/>value = [0.0, 0.724, 0.0, 0.0, 0.0, 0.276, 0.0, 0.0, 0.0, 0.0<br/>0.0, 0.0]<br/>class = DrDoS_UDP>, fillcolor="#efe685"] ;
138 -> 139 ;
140 [label=<entropy = 0.332<br/>samples = 0.0%<br/>value = [0.0, 0.939, 0.0, 0.0, 0.0, 0.061, 0.0, 0.0, 0.0, 0.0<br/>0.0, 0.0]<br/>class = DrDoS_UDP>, fillcolor="#e7da46"] ;
138 -> 140 ;
141 [label=<Packet Length Min &le; 262.5<br/>entropy = 0.165<br/>samples = 0.0%<br/>value = [0.0, 0.976, 0.0, 0.0, 0.0, 0.024, 0.0, 0.0, 0.0, 0.0<br/>0.0, 0.0]<br/>class = DrDoS_UDP>, fillcolor="#e6d83e"] ;
137 -> 141 ;
142 [label=<entropy = 0.0<br/>samples = 0.0%<br/>value = [0.0, 1.0, 0.0, 0.0, 0.0, 0.0, 0.0, 0.0, 0.0, 0.0<br/>0.0, 0.0]<br/>class = DrDoS_UDP>, fillcolor="#e5d739"] ;
141 -> 142 ;
143 [label=<entropy = 0.276<br/>samples = 0.0%<br/>value = [0.0, 0.952, 0.0, 0.0, 0.0, 0.048, 0.0, 0.0, 0.0, 0.0<br/>0.0, 0.0]<br/>class = DrDoS_UDP>, fillcolor="#e6d943"] ;
141 -> 143 ;
144 [label=<Flow Bytes/s &le; 383500000.0<br/>entropy = 1.352<br/>samples = 0.0%<br/>value = [0.0, 0.556, 0.0, 0.0, 0.0, 0.111, 0.0, 0.0, 0.0, 0.0<br/>0.0, 0.333]<br/>class = DrDoS_UDP>, fillcolor="#f6f2bd"] ;
136 -> 144 ;
145 [label=<entropy = 0.0<br/>samples = 0.0%<br/>value = [0.0, 0.0, 0.0, 0.0, 0.0, 0.0, 0.0, 0.0, 0.0, 0.0<br/>0.0, 1.0]<br/>class = TFTP>, fillcolor="#e53947"] ;
144 -> 145 ;
146 [label=<Avg Packet Size &le; 590.25<br/>entropy = 0.65<br/>samples = 0.0%<br/>value = [0.0, 0.833, 0.0, 0.0, 0.0, 0.167, 0.0, 0.0, 0.0, 0.0<br/>0.0, 0.0]<br/>class = DrDoS_UDP>, fillcolor="#eadf61"] ;
144 -> 146 ;
147 [label=<entropy = 0.918<br/>samples = 0.0%<br/>value = [0.0, 0.667, 0.0, 0.0, 0.0, 0.333, 0.0, 0.0, 0.0, 0.0<br/>0.0, 0.0]<br/>class = DrDoS_UDP>, fillcolor="#f2eb9c"] ;
146 -> 147 ;
148 [label=<entropy = 0.0<br/>samples = 0.0%<br/>value = [0.0, 1.0, 0.0, 0.0, 0.0, 0.0, 0.0, 0.0, 0.0, 0.0<br/>0.0, 0.0]<br/>class = DrDoS_UDP>, fillcolor="#e5d739"] ;
146 -> 148 ;
149 [label=<Fwd Packet Length Max &le; 251.5<br/>entropy = 0.75<br/>samples = 0.0%<br/>value = [0.0, 0.214, 0.0, 0.0, 0.0, 0.786, 0.0, 0.0, 0.0, 0.0<br/>0.0, 0.0]<br/>class = DrDoS_DNS>, fillcolor="#6fece2"] ;
135 -> 149 ;
150 [label=<Fwd Seg Size Min &le; 251.5<br/>entropy = 0.918<br/>samples = 0.0%<br/>value = [0.0, 0.333, 0.0, 0.0, 0.0, 0.667, 0.0, 0.0, 0.0, 0.0<br/>0.0, 0.0]<br/>class = DrDoS_DNS>, fillcolor="#9cf2eb"] ;
149 -> 150 ;
151 [label=<Avg Packet Size &le; 337.5<br/>entropy = 0.811<br/>samples = 0.0%<br/>value = [0.0, 0.25, 0.0, 0.0, 0.0, 0.75, 0.0, 0.0, 0.0, 0.0<br/>0.0, 0.0]<br/>class = DrDoS_DNS>, fillcolor="#7beee4"] ;
150 -> 151 ;
152 [label=<entropy = 0.592<br/>samples = 0.0%<br/>value = [0.0, 0.143, 0.0, 0.0, 0.0, 0.857, 0.0, 0.0, 0.0, 0.0<br/>0.0, 0.0]<br/>class = DrDoS_DNS>, fillcolor="#5ae9de"] ;
151 -> 152 ;
153 [label=<entropy = 0.0<br/>samples = 0.0%<br/>value = [0.0, 1.0, 0.0, 0.0, 0.0, 0.0, 0.0, 0.0, 0.0, 0.0<br/>0.0, 0.0]<br/>class = DrDoS_UDP>, fillcolor="#e5d739"] ;
151 -> 153 ;
154 [label=<entropy = 0.0<br/>samples = 0.0%<br/>value = [0.0, 1.0, 0.0, 0.0, 0.0, 0.0, 0.0, 0.0, 0.0, 0.0<br/>0.0, 0.0]<br/>class = DrDoS_UDP>, fillcolor="#e5d739"] ;
150 -> 154 ;
155 [label=<entropy = 0.0<br/>samples = 0.0%<br/>value = [0.0, 0.0, 0.0, 0.0, 0.0, 1.0, 0.0, 0.0, 0.0, 0.0<br/>0.0, 0.0]<br/>class = DrDoS_DNS>, fillcolor="#39e5d7"] ;
149 -> 155 ;
156 [label=<Fwd Packet Length Max &le; 371.5<br/>entropy = 0.362<br/>samples = 0.0%<br/>value = [0.0, 0.931, 0.0, 0.0, 0.0, 0.0, 0.0, 0.069, 0.0, 0.0<br/>0.0, 0.0]<br/>class = DrDoS_UDP>, fillcolor="#e7da48"] ;
134 -> 156 ;
157 [label=<entropy = 0.0<br/>samples = 0.0%<br/>value = [0.0, 1.0, 0.0, 0.0, 0.0, 0.0, 0.0, 0.0, 0.0, 0.0<br/>0.0, 0.0]<br/>class = DrDoS_UDP>, fillcolor="#e5d739"] ;
156 -> 157 ;
158 [label=<entropy = 1.0<br/>samples = 0.0%<br/>value = [0.0, 0.5, 0.0, 0.0, 0.0, 0.0, 0.0, 0.5, 0.0, 0.0<br/>0.0, 0.0]<br/>class = DrDoS_UDP>, fillcolor="#ffffff"] ;
156 -> 158 ;
159 [label=<Flow IAT Mean &le; 2.833<br/>entropy = 1.289<br/>samples = 0.3%<br/>value = [0.056, 0.673, 0.0, 0.0, 0.003, 0.244, 0.017, 0.0, 0.0<br/>0.0, 0.0, 0.007]<br/>class = DrDoS_UDP>, fillcolor="#f0e88f"] ;
9 -> 159 ;
160 [label=<Fwd Header Length &le; 16.0<br/>entropy = 1.016<br/>samples = 0.0%<br/>value = [0.345, 0.012, 0.0, 0.0, 0.0, 0.643, 0.0, 0.0, 0.0<br/>0.0, 0.0, 0.0]<br/>class = DrDoS_DNS>, fillcolor="#a5f3ed"] ;
159 -> 160 ;
161 [label=<Fwd Act Data Packets &le; 1.5<br/>entropy = 0.91<br/>samples = 0.0%<br/>value = [0.674, 0.0, 0.0, 0.0, 0.0, 0.326, 0.0, 0.0, 0.0, 0.0<br/>0.0, 0.0]<br/>class = DrDoS_SSDP>, fillcolor="#f2be99"] ;
160 -> 161 ;
162 [label=<entropy = 0.0<br/>samples = 0.0%<br/>value = [1.0, 0.0, 0.0, 0.0, 0.0, 0.0, 0.0, 0.0, 0.0, 0.0<br/>0.0, 0.0]<br/>class = DrDoS_SSDP>, fillcolor="#e58139"] ;
161 -> 162 ;
163 [label=<entropy = 0.0<br/>samples = 0.0%<br/>value = [0.0, 0.0, 0.0, 0.0, 0.0, 1.0, 0.0, 0.0, 0.0, 0.0<br/>0.0, 0.0]<br/>class = DrDoS_DNS>, fillcolor="#39e5d7"] ;
161 -> 163 ;
164 [label=<Fwd Packet Length Max &le; 300.5<br/>entropy = 0.165<br/>samples = 0.0%<br/>value = [0.0, 0.024, 0.0, 0.0, 0.0, 0.976, 0.0, 0.0, 0.0, 0.0<br/>0.0, 0.0]<br/>class = DrDoS_DNS>, fillcolor="#3ee6d8"] ;
160 -> 164 ;
165 [label=<entropy = 0.0<br/>samples = 0.0%<br/>value = [0.0, 0.0, 0.0, 0.0, 0.0, 1.0, 0.0, 0.0, 0.0, 0.0<br/>0.0, 0.0]<br/>class = DrDoS_DNS>, fillcolor="#39e5d7"] ;
164 -> 165 ;
166 [label=<entropy = 0.0<br/>samples = 0.0%<br/>value = [0.0, 1.0, 0.0, 0.0, 0.0, 0.0, 0.0, 0.0, 0.0, 0.0<br/>0.0, 0.0]<br/>class = DrDoS_UDP>, fillcolor="#e5d739"] ;
164 -> 166 ;
167 [label=<Fwd Packet Length Max &le; 209.5<br/>entropy = 0.984<br/>samples = 0.3%<br/>value = [0.01, 0.78, 0.0, 0.0, 0.004, 0.18, 0.019, 0.0, 0.0<br/>0.0, 0.0, 0.008]<br/>class = DrDoS_UDP>, fillcolor="#ece26e"] ;
159 -> 167 ;
168 [label=<Fwd Seg Size Min &le; 77.5<br/>entropy = 0.449<br/>samples = 0.1%<br/>value = [0.018, 0.935, 0.0, 0.0, 0.004, 0.007, 0.036, 0.0, 0.0<br/>0.0, 0.0, 0.0]<br/>class = DrDoS_UDP>, fillcolor="#e7da46"] ;
167 -> 168 ;
169 [label=<Protocol &le; 8.5<br/>entropy = 0.351<br/>samples = 0.1%<br/>value = [0.019, 0.95, 0.0, 0.0, 0.004, 0.0, 0.027, 0.0, 0.0<br/>0.0, 0.0, 0.0]<br/>class = DrDoS_UDP>, fillcolor="#e6d943"] ;
168 -> 169 ;
170 [label=<entropy = 0.0<br/>samples = 0.0%<br/>value = [1.0, 0.0, 0.0, 0.0, 0.0, 0.0, 0.0, 0.0, 0.0, 0.0<br/>0.0, 0.0]<br/>class = DrDoS_SSDP>, fillcolor="#e58139"] ;
169 -> 170 ;
171 [label=<Fwd IAT Min &le; 2.0<br/>entropy = 0.33<br/>samples = 0.1%<br/>value = [0.015, 0.954, 0.0, 0.0, 0.004, 0.0, 0.027, 0.0, 0.0<br/>0.0, 0.0, 0.0]<br/>class = DrDoS_UDP>, fillcolor="#e6d942"] ;
169 -> 171 ;
172 [label=<entropy = 0.0<br/>samples = 0.0%<br/>value = [1.0, 0.0, 0.0, 0.0, 0.0, 0.0, 0.0, 0.0, 0.0, 0.0<br/>0.0, 0.0]<br/>class = DrDoS_SSDP>, fillcolor="#e58139"] ;
171 -> 172 ;
173 [label=<Fwd IAT Mean &le; 4.5<br/>entropy = 0.218<br/>samples = 0.1%<br/>value = [0.0, 0.969, 0.0, 0.0, 0.004, 0.0, 0.027, 0.0, 0.0<br/>0.0, 0.0, 0.0]<br/>class = DrDoS_UDP>, fillcolor="#e6d83f"] ;
171 -> 173 ;
174 [label=<Flow Bytes/s &le; 25166667.0<br/>entropy = 0.347<br/>samples = 0.1%<br/>value = [0.0, 0.943, 0.0, 0.0, 0.007, 0.0, 0.05, 0.0, 0.0<br/>0.0, 0.0, 0.0]<br/>class = DrDoS_UDP>, fillcolor="#e7d945"] ;
173 -> 174 ;
175 [label=<Avg Packet Size &le; 69.0<br/>entropy = 0.632<br/>samples = 0.0%<br/>value = [0.0, 0.841, 0.0, 0.0, 0.0, 0.0, 0.159, 0.0, 0.0, 0.0<br/>0.0, 0.0]<br/>class = DrDoS_UDP>, fillcolor="#eadf5e"] ;
174 -> 175 ;
176 [label=<Fwd Packet Length Max &le; 29.0<br/>entropy = 0.384<br/>samples = 0.0%<br/>value = [0.0, 0.925, 0.0, 0.0, 0.0, 0.0, 0.075, 0.0, 0.0, 0.0<br/>0.0, 0.0]<br/>class = DrDoS_UDP>, fillcolor="#e7da49"] ;
175 -> 176 ;
177 [label=<entropy = 0.0<br/>samples = 0.0%<br/>value = [0.0, 1.0, 0.0, 0.0, 0.0, 0.0, 0.0, 0.0, 0.0, 0.0<br/>0.0, 0.0]<br/>class = DrDoS_UDP>, fillcolor="#e5d739"] ;
176 -> 177 ;
178 [label=<Flow Packets/s &le; 583333.344<br/>entropy = 0.61<br/>samples = 0.0%<br/>value = [0.0, 0.85, 0.0, 0.0, 0.0, 0.0, 0.15, 0.0, 0.0, 0.0<br/>0.0, 0.0]<br/>class = DrDoS_UDP>, fillcolor="#eade5c"] ;
176 -> 178 ;
179 [label=<entropy = 0.0<br/>samples = 0.0%<br/>value = [0.0, 1.0, 0.0, 0.0, 0.0, 0.0, 0.0, 0.0, 0.0, 0.0<br/>0.0, 0.0]<br/>class = DrDoS_UDP>, fillcolor="#e5d739"] ;
178 -> 179 ;
180 [label=<entropy = 0.779<br/>samples = 0.0%<br/>value = [0.0, 0.769, 0.0, 0.0, 0.0, 0.0, 0.231, 0.0, 0.0, 0.0<br/>0.0, 0.0]<br/>class = DrDoS_UDP>, fillcolor="#ede374"] ;
178 -> 180 ;
181 [label=<entropy = 0.0<br/>samples = 0.0%<br/>value = [0.0, 0.0, 0.0, 0.0, 0.0, 0.0, 1.0, 0.0, 0.0, 0.0<br/>0.0, 0.0]<br/>class = DrDoS_MSSQL>, fillcolor="#399de5"] ;
175 -> 181 ;
182 [label=<Flow Bytes/s &le; 99666668.0<br/>entropy = 0.084<br/>samples = 0.0%<br/>value = [0.0, 0.99, 0.0, 0.0, 0.01, 0.0, 0.0, 0.0, 0.0, 0.0<br/>0.0, 0.0]<br/>class = DrDoS_UDP>, fillcolor="#e5d73b"] ;
174 -> 182 ;
183 [label=<entropy = 0.0<br/>samples = 0.0%<br/>value = [0.0, 1.0, 0.0, 0.0, 0.0, 0.0, 0.0, 0.0, 0.0, 0.0<br/>0.0, 0.0]<br/>class = DrDoS_UDP>, fillcolor="#e5d739"] ;
182 -> 183 ;
184 [label=<Fwd Seg Size Min &le; 4.0<br/>entropy = 0.176<br/>samples = 0.0%<br/>value = [0.0, 0.974, 0.0, 0.0, 0.026, 0.0, 0.0, 0.0, 0.0, 0.0<br/>0.0, 0.0]<br/>class = DrDoS_UDP>, fillcolor="#e6d83e"] ;
182 -> 184 ;
185 [label=<Fwd Packet Length Max &le; 158.0<br/>entropy = 0.286<br/>samples = 0.0%<br/>value = [0.0, 0.95, 0.0, 0.0, 0.05, 0.0, 0.0, 0.0, 0.0, 0.0<br/>0.0, 0.0]<br/>class = DrDoS_UDP>, fillcolor="#e6d943"] ;
184 -> 185 ;
186 [label=<entropy = 0.0<br/>samples = 0.0%<br/>value = [0.0, 0.0, 0.0, 0.0, 1.0, 0.0, 0.0, 0.0, 0.0, 0.0<br/>0.0, 0.0]<br/>class = DrDoS_LDAP>, fillcolor="#39e581"] ;
185 -> 186 ;
187 [label=<entropy = 0.0<br/>samples = 0.0%<br/>value = [0.0, 1.0, 0.0, 0.0, 0.0, 0.0, 0.0, 0.0, 0.0, 0.0<br/>0.0, 0.0]<br/>class = DrDoS_UDP>, fillcolor="#e5d739"] ;
185 -> 187 ;
188 [label=<entropy = 0.0<br/>samples = 0.0%<br/>value = [0.0, 1.0, 0.0, 0.0, 0.0, 0.0, 0.0, 0.0, 0.0, 0.0<br/>0.0, 0.0]<br/>class = DrDoS_UDP>, fillcolor="#e5d739"] ;
184 -> 188 ;
189 [label=<entropy = 0.0<br/>samples = 0.1%<br/>value = [0.0, 1.0, 0.0, 0.0, 0.0, 0.0, 0.0, 0.0, 0.0, 0.0<br/>0.0, 0.0]<br/>class = DrDoS_UDP>, fillcolor="#e5d739"] ;
173 -> 189 ;
190 [label=<Flow Bytes/s &le; 116333332.0<br/>entropy = 1.16<br/>samples = 0.0%<br/>value = [0.0, 0.706, 0.0, 0.0, 0.0, 0.118, 0.176, 0.0, 0.0<br/>0.0, 0.0, 0.0]<br/>class = DrDoS_UDP>, fillcolor="#eee580"] ;
168 -> 190 ;
191 [label=<Flow Bytes/s &le; 32166667.0<br/>entropy = 0.722<br/>samples = 0.0%<br/>value = [0.0, 0.8, 0.0, 0.0, 0.0, 0.0, 0.2, 0.0, 0.0, 0.0<br/>0.0, 0.0]<br/>class = DrDoS_UDP>, fillcolor="#ece16a"] ;
190 -> 191 ;
192 [label=<entropy = 0.0<br/>samples = 0.0%<br/>value = [0.0, 1.0, 0.0, 0.0, 0.0, 0.0, 0.0, 0.0, 0.0, 0.0<br/>0.0, 0.0]<br/>class = DrDoS_UDP>, fillcolor="#e5d739"] ;
191 -> 192 ;
193 [label=<Fwd IAT Min &le; 4.0<br/>entropy = 0.918<br/>samples = 0.0%<br/>value = [0.0, 0.667, 0.0, 0.0, 0.0, 0.0, 0.333, 0.0, 0.0, 0.0<br/>0.0, 0.0]<br/>class = DrDoS_UDP>, fillcolor="#f2eb9c"] ;
191 -> 193 ;
194 [label=<Fwd Packet Length Max &le; 51.0<br/>entropy = 0.985<br/>samples = 0.0%<br/>value = [0.0, 0.571, 0.0, 0.0, 0.0, 0.0, 0.429, 0.0, 0.0, 0.0<br/>0.0, 0.0]<br/>class = DrDoS_UDP>, fillcolor="#f8f5ce"] ;
193 -> 194 ;
195 [label=<entropy = 0.0<br/>samples = 0.0%<br/>value = [0.0, 0.0, 0.0, 0.0, 0.0, 0.0, 1.0, 0.0, 0.0, 0.0<br/>0.0, 0.0]<br/>class = DrDoS_MSSQL>, fillcolor="#399de5"] ;
194 -> 195 ;
196 [label=<entropy = 0.0<br/>samples = 0.0%<br/>value = [0.0, 1.0, 0.0, 0.0, 0.0, 0.0, 0.0, 0.0, 0.0, 0.0<br/>0.0, 0.0]<br/>class = DrDoS_UDP>, fillcolor="#e5d739"] ;
194 -> 196 ;
197 [label=<entropy = 0.0<br/>samples = 0.0%<br/>value = [0.0, 1.0, 0.0, 0.0, 0.0, 0.0, 0.0, 0.0, 0.0, 0.0<br/>0.0, 0.0]<br/>class = DrDoS_UDP>, fillcolor="#e5d739"] ;
193 -> 197 ;
198 [label=<entropy = 0.0<br/>samples = 0.0%<br/>value = [0.0, 0.0, 0.0, 0.0, 0.0, 1.0, 0.0, 0.0, 0.0, 0.0<br/>0.0, 0.0]<br/>class = DrDoS_DNS>, fillcolor="#39e5d7"] ;
190 -> 198 ;
199 [label=<Packet Length Min &le; 266.5<br/>entropy = 1.103<br/>samples = 0.1%<br/>value = [0.0, 0.602, 0.0, 0.0, 0.004, 0.378, 0.0, 0.0, 0.0<br/>0.0, 0.0, 0.017]<br/>class = DrDoS_UDP>, fillcolor="#f6f1b8"] ;
167 -> 199 ;
200 [label=<Fwd IAT Min &le; 3.5<br/>entropy = 0.984<br/>samples = 0.1%<br/>value = [0.0, 0.341, 0.0, 0.0, 0.007, 0.652, 0.0, 0.0, 0.0<br/>0.0, 0.0, 0.0]<br/>class = DrDoS_DNS>, fillcolor="#a2f3ec"] ;
199 -> 200 ;
201 [label=<Fwd Header Length &le; 30.0<br/>entropy = 0.993<br/>samples = 0.0%<br/>value = [0.0, 0.548, 0.0, 0.0, 0.0, 0.452, 0.0, 0.0, 0.0, 0.0<br/>0.0, 0.0]<br/>class = DrDoS_UDP>, fillcolor="#faf8dd"] ;
200 -> 201 ;
202 [label=<Fwd Packet Length Max &le; 260.5<br/>entropy = 0.871<br/>samples = 0.0%<br/>value = [0.0, 0.708, 0.0, 0.0, 0.0, 0.292, 0.0, 0.0, 0.0, 0.0<br/>0.0, 0.0]<br/>class = DrDoS_UDP>, fillcolor="#f0e78b"] ;
201 -> 202 ;
203 [label=<Fwd Header Length &le; -1.0<br/>entropy = 0.702<br/>samples = 0.0%<br/>value = [0.0, 0.81, 0.0, 0.0, 0.0, 0.19, 0.0, 0.0, 0.0, 0.0<br/>0.0, 0.0]<br/>class = DrDoS_UDP>, fillcolor="#ebe068"] ;
202 -> 203 ;
204 [label=<entropy = 0.0<br/>samples = 0.0%<br/>value = [0.0, 1.0, 0.0, 0.0, 0.0, 0.0, 0.0, 0.0, 0.0, 0.0<br/>0.0, 0.0]<br/>class = DrDoS_UDP>, fillcolor="#e5d739"] ;
203 -> 204 ;
205 [label=<Flow Bytes/s &le; 165333336.0<br/>entropy = 0.811<br/>samples = 0.0%<br/>value = [0.0, 0.75, 0.0, 0.0, 0.0, 0.25, 0.0, 0.0, 0.0, 0.0<br/>0.0, 0.0]<br/>class = DrDoS_UDP>, fillcolor="#eee47b"] ;
203 -> 205 ;
206 [label=<Fwd Seg Size Min &le; 11.0<br/>entropy = 0.946<br/>samples = 0.0%<br/>value = [0.0, 0.636, 0.0, 0.0, 0.0, 0.364, 0.0, 0.0, 0.0, 0.0<br/>0.0, 0.0]<br/>class = DrDoS_UDP>, fillcolor="#f4eeaa"] ;
205 -> 206 ;
207 [label=<Packet Length Min &le; 225.5<br/>entropy = 0.985<br/>samples = 0.0%<br/>value = [0.0, 0.571, 0.0, 0.0, 0.0, 0.429, 0.0, 0.0, 0.0, 0.0<br/>0.0, 0.0]<br/>class = DrDoS_UDP>, fillcolor="#f8f5ce"] ;
206 -> 207 ;
208 [label=<entropy = 0.0<br/>samples = 0.0%<br/>value = [0.0, 1.0, 0.0, 0.0, 0.0, 0.0, 0.0, 0.0, 0.0, 0.0<br/>0.0, 0.0]<br/>class = DrDoS_UDP>, fillcolor="#e5d739"] ;
207 -> 208 ;
209 [label=<entropy = 0.971<br/>samples = 0.0%<br/>value = [0.0, 0.4, 0.0, 0.0, 0.0, 0.6, 0.0, 0.0, 0.0, 0.0<br/>0.0, 0.0]<br/>class = DrDoS_DNS>, fillcolor="#bdf6f2"] ;
207 -> 209 ;
210 [label=<entropy = 0.811<br/>samples = 0.0%<br/>value = [0.0, 0.75, 0.0, 0.0, 0.0, 0.25, 0.0, 0.0, 0.0, 0.0<br/>0.0, 0.0]<br/>class = DrDoS_UDP>, fillcolor="#eee47b"] ;
206 -> 210 ;
211 [label=<entropy = 0.0<br/>samples = 0.0%<br/>value = [0.0, 1.0, 0.0, 0.0, 0.0, 0.0, 0.0, 0.0, 0.0, 0.0<br/>0.0, 0.0]<br/>class = DrDoS_UDP>, fillcolor="#e5d739"] ;
205 -> 211 ;
212 [label=<entropy = 0.0<br/>samples = 0.0%<br/>value = [0.0, 0.0, 0.0, 0.0, 0.0, 1.0, 0.0, 0.0, 0.0, 0.0<br/>0.0, 0.0]<br/>class = DrDoS_DNS>, fillcolor="#39e5d7"] ;
202 -> 212 ;
213 [label=<Avg Packet Size &le; 350.25<br/>entropy = 0.918<br/>samples = 0.0%<br/>value = [0.0, 0.333, 0.0, 0.0, 0.0, 0.667, 0.0, 0.0, 0.0, 0.0<br/>0.0, 0.0]<br/>class = DrDoS_DNS>, fillcolor="#9cf2eb"] ;
201 -> 213 ;
214 [label=<Packet Length Min &le; 225.5<br/>entropy = 0.414<br/>samples = 0.0%<br/>value = [0.0, 0.083, 0.0, 0.0, 0.0, 0.917, 0.0, 0.0, 0.0, 0.0<br/>0.0, 0.0]<br/>class = DrDoS_DNS>, fillcolor="#4be7db"] ;
213 -> 214 ;
215 [label=<Flow Bytes/s &le; 144333336.0<br/>entropy = 0.722<br/>samples = 0.0%<br/>value = [0.0, 0.2, 0.0, 0.0, 0.0, 0.8, 0.0, 0.0, 0.0, 0.0<br/>0.0, 0.0]<br/>class = DrDoS_DNS>, fillcolor="#6aece1"] ;
214 -> 215 ;
216 [label=<entropy = 0.0<br/>samples = 0.0%<br/>value = [0.0, 0.0, 0.0, 0.0, 0.0, 1.0, 0.0, 0.0, 0.0, 0.0<br/>0.0, 0.0]<br/>class = DrDoS_DNS>, fillcolor="#39e5d7"] ;
215 -> 216 ;
217 [label=<entropy = 0.0<br/>samples = 0.0%<br/>value = [0.0, 1.0, 0.0, 0.0, 0.0, 0.0, 0.0, 0.0, 0.0, 0.0<br/>0.0, 0.0]<br/>class = DrDoS_UDP>, fillcolor="#e5d739"] ;
215 -> 217 ;
218 [label=<entropy = 0.0<br/>samples = 0.0%<br/>value = [0.0, 0.0, 0.0, 0.0, 0.0, 1.0, 0.0, 0.0, 0.0, 0.0<br/>0.0, 0.0]<br/>class = DrDoS_DNS>, fillcolor="#39e5d7"] ;
214 -> 218 ;
219 [label=<Avg Packet Size &le; 369.0<br/>entropy = 0.65<br/>samples = 0.0%<br/>value = [0.0, 0.833, 0.0, 0.0, 0.0, 0.167, 0.0, 0.0, 0.0, 0.0<br/>0.0, 0.0]<br/>class = DrDoS_UDP>, fillcolor="#eadf61"] ;
213 -> 219 ;
220 [label=<entropy = 0.0<br/>samples = 0.0%<br/>value = [0.0, 1.0, 0.0, 0.0, 0.0, 0.0, 0.0, 0.0, 0.0, 0.0<br/>0.0, 0.0]<br/>class = DrDoS_UDP>, fillcolor="#e5d739"] ;
219 -> 220 ;
221 [label=<entropy = 0.918<br/>samples = 0.0%<br/>value = [0.0, 0.667, 0.0, 0.0, 0.0, 0.333, 0.0, 0.0, 0.0, 0.0<br/>0.0, 0.0]<br/>class = DrDoS_UDP>, fillcolor="#f2eb9c"] ;
219 -> 221 ;
222 [label=<Flow Packets/s &le; 366666.672<br/>entropy = 0.888<br/>samples = 0.0%<br/>value = [0.0, 0.247, 0.0, 0.0, 0.011, 0.742, 0.0, 0.0, 0.0<br/>0.0, 0.0, 0.0]<br/>class = DrDoS_DNS>, fillcolor="#7deee5"] ;
200 -> 222 ;
223 [label=<Fwd IAT Mean &le; 7.5<br/>entropy = 0.98<br/>samples = 0.0%<br/>value = [0.0, 0.417, 0.0, 0.0, 0.0, 0.583, 0.0, 0.0, 0.0, 0.0<br/>0.0, 0.0]<br/>class = DrDoS_DNS>, fillcolor="#c6f8f4"] ;
222 -> 223 ;
224 [label=<Fwd Packet Length Max &le; 261.5<br/>entropy = 1.0<br/>samples = 0.0%<br/>value = [0.0, 0.5, 0.0, 0.0, 0.0, 0.5, 0.0, 0.0, 0.0, 0.0<br/>0.0, 0.0]<br/>class = DrDoS_UDP>, fillcolor="#ffffff"] ;
223 -> 224 ;
225 [label=<Avg Packet Size &le; 369.0<br/>entropy = 0.918<br/>samples = 0.0%<br/>value = [0.0, 0.667, 0.0, 0.0, 0.0, 0.333, 0.0, 0.0, 0.0, 0.0<br/>0.0, 0.0]<br/>class = DrDoS_UDP>, fillcolor="#f2eb9c"] ;
224 -> 225 ;
226 [label=<Flow Packets/s &le; 309523.812<br/>entropy = 0.696<br/>samples = 0.0%<br/>value = [0.0, 0.812, 0.0, 0.0, 0.0, 0.188, 0.0, 0.0, 0.0, 0.0<br/>0.0, 0.0]<br/>class = DrDoS_UDP>, fillcolor="#ebe067"] ;
225 -> 226 ;
227 [label=<Avg Packet Size &le; 350.25<br/>entropy = 0.684<br/>samples = 0.0%<br/>value = [0.0, 0.818, 0.0, 0.0, 0.0, 0.182, 0.0, 0.0, 0.0, 0.0<br/>0.0, 0.0]<br/>class = DrDoS_UDP>, fillcolor="#ebe065"] ;
226 -> 227 ;
228 [label=<entropy = 1.0<br/>samples = 0.0%<br/>value = [0.0, 0.5, 0.0, 0.0, 0.0, 0.5, 0.0, 0.0, 0.0, 0.0<br/>0.0, 0.0]<br/>class = DrDoS_UDP>, fillcolor="#ffffff"] ;
227 -> 228 ;
229 [label=<entropy = 0.0<br/>samples = 0.0%<br/>value = [0.0, 1.0, 0.0, 0.0, 0.0, 0.0, 0.0, 0.0, 0.0, 0.0<br/>0.0, 0.0]<br/>class = DrDoS_UDP>, fillcolor="#e5d739"] ;
227 -> 229 ;
230 [label=<Fwd Header Length &le; 249.0<br/>entropy = 0.722<br/>samples = 0.0%<br/>value = [0.0, 0.8, 0.0, 0.0, 0.0, 0.2, 0.0, 0.0, 0.0, 0.0<br/>0.0, 0.0]<br/>class = DrDoS_UDP>, fillcolor="#ece16a"] ;
226 -> 230 ;
231 [label=<entropy = 0.0<br/>samples = 0.0%<br/>value = [0.0, 1.0, 0.0, 0.0, 0.0, 0.0, 0.0, 0.0, 0.0, 0.0<br/>0.0, 0.0]<br/>class = DrDoS_UDP>, fillcolor="#e5d739"] ;
230 -> 231 ;
232 [label=<entropy = 0.0<br/>samples = 0.0%<br/>value = [0.0, 0.0, 0.0, 0.0, 0.0, 1.0, 0.0, 0.0, 0.0, 0.0<br/>0.0, 0.0]<br/>class = DrDoS_DNS>, fillcolor="#39e5d7"] ;
230 -> 232 ;
233 [label=<Packet Length Min &le; 251.5<br/>entropy = 0.954<br/>samples = 0.0%<br/>value = [0.0, 0.375, 0.0, 0.0, 0.0, 0.625, 0.0, 0.0, 0.0, 0.0<br/>0.0, 0.0]<br/>class = DrDoS_DNS>, fillcolor="#b0f5ef"] ;
225 -> 233 ;
234 [label=<entropy = 0.0<br/>samples = 0.0%<br/>value = [0.0, 0.0, 0.0, 0.0, 0.0, 1.0, 0.0, 0.0, 0.0, 0.0<br/>0.0, 0.0]<br/>class = DrDoS_DNS>, fillcolor="#39e5d7"] ;
233 -> 234 ;
235 [label=<entropy = 0.0<br/>samples = 0.0%<br/>value = [0.0, 1.0, 0.0, 0.0, 0.0, 0.0, 0.0, 0.0, 0.0, 0.0<br/>0.0, 0.0]<br/>class = DrDoS_UDP>, fillcolor="#e5d739"] ;
233 -> 235 ;
236 [label=<entropy = 0.0<br/>samples = 0.0%<br/>value = [0.0, 0.0, 0.0, 0.0, 0.0, 1.0, 0.0, 0.0, 0.0, 0.0<br/>0.0, 0.0]<br/>class = DrDoS_DNS>, fillcolor="#39e5d7"] ;
224 -> 236 ;
237 [label=<Flow Duration &le; 10.5<br/>entropy = 0.811<br/>samples = 0.0%<br/>value = [0.0, 0.25, 0.0, 0.0, 0.0, 0.75, 0.0, 0.0, 0.0, 0.0<br/>0.0, 0.0]<br/>class = DrDoS_DNS>, fillcolor="#7beee4"] ;
223 -> 237 ;
238 [label=<Fwd Packet Length Max &le; 242.5<br/>entropy = 0.863<br/>samples = 0.0%<br/>value = [0.0, 0.286, 0.0, 0.0, 0.0, 0.714, 0.0, 0.0, 0.0, 0.0<br/>0.0, 0.0]<br/>class = DrDoS_DNS>, fillcolor="#88efe7"] ;
237 -> 238 ;
239 [label=<Fwd Packet Length Max &le; 233.5<br/>entropy = 0.971<br/>samples = 0.0%<br/>value = [0.0, 0.4, 0.0, 0.0, 0.0, 0.6, 0.0, 0.0, 0.0, 0.0<br/>0.0, 0.0]<br/>class = DrDoS_DNS>, fillcolor="#bdf6f2"] ;
238 -> 239 ;
240 [label=<Fwd Header Length &le; -1.0<br/>entropy = 0.592<br/>samples = 0.0%<br/>value = [0.0, 0.143, 0.0, 0.0, 0.0, 0.857, 0.0, 0.0, 0.0, 0.0<br/>0.0, 0.0]<br/>class = DrDoS_DNS>, fillcolor="#5ae9de"] ;
239 -> 240 ;
241 [label=<entropy = 0.0<br/>samples = 0.0%<br/>value = [0.0, 1.0, 0.0, 0.0, 0.0, 0.0, 0.0, 0.0, 0.0, 0.0<br/>0.0, 0.0]<br/>class = DrDoS_UDP>, fillcolor="#e5d739"] ;
240 -> 241 ;
242 [label=<entropy = 0.0<br/>samples = 0.0%<br/>value = [0.0, 0.0, 0.0, 0.0, 0.0, 1.0, 0.0, 0.0, 0.0, 0.0<br/>0.0, 0.0]<br/>class = DrDoS_DNS>, fillcolor="#39e5d7"] ;
240 -> 242 ;
243 [label=<entropy = 0.0<br/>samples = 0.0%<br/>value = [0.0, 1.0, 0.0, 0.0, 0.0, 0.0, 0.0, 0.0, 0.0, 0.0<br/>0.0, 0.0]<br/>class = DrDoS_UDP>, fillcolor="#e5d739"] ;
239 -> 243 ;
244 [label=<entropy = 0.0<br/>samples = 0.0%<br/>value = [0.0, 0.0, 0.0, 0.0, 0.0, 1.0, 0.0, 0.0, 0.0, 0.0<br/>0.0, 0.0]<br/>class = DrDoS_DNS>, fillcolor="#39e5d7"] ;
238 -> 244 ;
245 [label=<entropy = 0.0<br/>samples = 0.0%<br/>value = [0.0, 0.0, 0.0, 0.0, 0.0, 1.0, 0.0, 0.0, 0.0, 0.0<br/>0.0, 0.0]<br/>class = DrDoS_DNS>, fillcolor="#39e5d7"] ;
237 -> 245 ;
246 [label=<Fwd IAT Total &le; 4.5<br/>entropy = 0.505<br/>samples = 0.0%<br/>value = [0.0, 0.067, 0.0, 0.0, 0.022, 0.911, 0.0, 0.0, 0.0<br/>0.0, 0.0, 0.0]<br/>class = DrDoS_DNS>, fillcolor="#4ce7db"] ;
222 -> 246 ;
247 [label=<Avg Packet Size &le; 350.25<br/>entropy = 0.503<br/>samples = 0.0%<br/>value = [0.0, 0.111, 0.0, 0.0, 0.0, 0.889, 0.0, 0.0, 0.0, 0.0<br/>0.0, 0.0]<br/>class = DrDoS_DNS>, fillcolor="#52e8dc"] ;
246 -> 247 ;
248 [label=<entropy = 0.0<br/>samples = 0.0%<br/>value = [0.0, 0.0, 0.0, 0.0, 0.0, 1.0, 0.0, 0.0, 0.0, 0.0<br/>0.0, 0.0]<br/>class = DrDoS_DNS>, fillcolor="#39e5d7"] ;
247 -> 248 ;
249 [label=<Flow Bytes/s &le; 121250000.0<br/>entropy = 0.764<br/>samples = 0.0%<br/>value = [0.0, 0.222, 0.0, 0.0, 0.0, 0.778, 0.0, 0.0, 0.0, 0.0<br/>0.0, 0.0]<br/>class = DrDoS_DNS>, fillcolor="#72ece2"] ;
247 -> 249 ;
250 [label=<entropy = 0.0<br/>samples = 0.0%<br/>value = [0.0, 1.0, 0.0, 0.0, 0.0, 0.0, 0.0, 0.0, 0.0, 0.0<br/>0.0, 0.0]<br/>class = DrDoS_UDP>, fillcolor="#e5d739"] ;
249 -> 250 ;
251 [label=<entropy = 0.0<br/>samples = 0.0%<br/>value = [0.0, 0.0, 0.0, 0.0, 0.0, 1.0, 0.0, 0.0, 0.0, 0.0<br/>0.0, 0.0]<br/>class = DrDoS_DNS>, fillcolor="#39e5d7"] ;
249 -> 251 ;
252 [label=<Packet Length Min &le; 226.5<br/>entropy = 0.455<br/>samples = 0.0%<br/>value = [0.0, 0.037, 0.0, 0.0, 0.037, 0.926, 0.0, 0.0, 0.0<br/>0.0, 0.0, 0.0]<br/>class = DrDoS_DNS>, fillcolor="#48e7da"] ;
246 -> 252 ;
253 [label=<Fwd Header Length &le; -1.0<br/>entropy = 1.252<br/>samples = 0.0%<br/>value = [0.0, 0.167, 0.0, 0.0, 0.167, 0.667, 0.0, 0.0, 0.0<br/>0.0, 0.0, 0.0]<br/>class = DrDoS_DNS>, fillcolor="#88efe7"] ;
252 -> 253 ;
254 [label=<entropy = 0.0<br/>samples = 0.0%<br/>value = [0.0, 0.0, 0.0, 0.0, 1.0, 0.0, 0.0, 0.0, 0.0, 0.0<br/>0.0, 0.0]<br/>class = DrDoS_LDAP>, fillcolor="#39e581"] ;
253 -> 254 ;
255 [label=<Packet Length Min &le; 212.5<br/>entropy = 0.722<br/>samples = 0.0%<br/>value = [0.0, 0.2, 0.0, 0.0, 0.0, 0.8, 0.0, 0.0, 0.0, 0.0<br/>0.0, 0.0]<br/>class = DrDoS_DNS>, fillcolor="#6aece1"] ;
253 -> 255 ;
256 [label=<entropy = 0.0<br/>samples = 0.0%<br/>value = [0.0, 0.0, 0.0, 0.0, 0.0, 1.0, 0.0, 0.0, 0.0, 0.0<br/>0.0, 0.0]<br/>class = DrDoS_DNS>, fillcolor="#39e5d7"] ;
255 -> 256 ;
257 [label=<entropy = 0.0<br/>samples = 0.0%<br/>value = [0.0, 1.0, 0.0, 0.0, 0.0, 0.0, 0.0, 0.0, 0.0, 0.0<br/>0.0, 0.0]<br/>class = DrDoS_UDP>, fillcolor="#e5d739"] ;
255 -> 257 ;
258 [label=<entropy = 0.0<br/>samples = 0.0%<br/>value = [0.0, 0.0, 0.0, 0.0, 0.0, 1.0, 0.0, 0.0, 0.0, 0.0<br/>0.0, 0.0]<br/>class = DrDoS_DNS>, fillcolor="#39e5d7"] ;
252 -> 258 ;
259 [label=<Fwd IAT Min &le; 3.5<br/>entropy = 0.416<br/>samples = 0.1%<br/>value = [0.0, 0.934, 0.0, 0.0, 0.0, 0.028, 0.0, 0.0, 0.0, 0.0<br/>0.0, 0.038]<br/>class = DrDoS_UDP>, fillcolor="#e7da47"] ;
199 -> 259 ;
260 [label=<Fwd Packet Length Max &le; 374.0<br/>entropy = 0.703<br/>samples = 0.0%<br/>value = [0.0, 0.865, 0.0, 0.0, 0.0, 0.058, 0.0, 0.0, 0.0, 0.0<br/>0.0, 0.077]<br/>class = DrDoS_UDP>, fillcolor="#e9dd56"] ;
259 -> 260 ;
261 [label=<Fwd Packet Length Max &le; 370.5<br/>entropy = 0.384<br/>samples = 0.0%<br/>value = [0.0, 0.925, 0.0, 0.0, 0.0, 0.075, 0.0, 0.0, 0.0, 0.0<br/>0.0, 0.0]<br/>class = DrDoS_UDP>, fillcolor="#e7da49"] ;
260 -> 261 ;
262 [label=<Fwd Seg Size Min &le; 4.0<br/>entropy = 0.292<br/>samples = 0.0%<br/>value = [0.0, 0.949, 0.0, 0.0, 0.0, 0.051, 0.0, 0.0, 0.0, 0.0<br/>0.0, 0.0]<br/>class = DrDoS_UDP>, fillcolor="#e6d944"] ;
261 -> 262 ;
263 [label=<entropy = 0.0<br/>samples = 0.0%<br/>value = [0.0, 1.0, 0.0, 0.0, 0.0, 0.0, 0.0, 0.0, 0.0, 0.0<br/>0.0, 0.0]<br/>class = DrDoS_UDP>, fillcolor="#e5d739"] ;
262 -> 263 ;
264 [label=<Fwd Header Length &le; 52.0<br/>entropy = 0.439<br/>samples = 0.0%<br/>value = [0.0, 0.909, 0.0, 0.0, 0.0, 0.091, 0.0, 0.0, 0.0, 0.0<br/>0.0, 0.0]<br/>class = DrDoS_UDP>, fillcolor="#e8db4d"] ;
262 -> 264 ;
265 [label=<Fwd Header Length &le; 22.0<br/>entropy = 0.323<br/>samples = 0.0%<br/>value = [0.0, 0.941, 0.0, 0.0, 0.0, 0.059, 0.0, 0.0, 0.0, 0.0<br/>0.0, 0.0]<br/>class = DrDoS_UDP>, fillcolor="#e7da45"] ;
264 -> 265 ;
266 [label=<Packet Length Min &le; 288.0<br/>entropy = 0.592<br/>samples = 0.0%<br/>value = [0.0, 0.857, 0.0, 0.0, 0.0, 0.143, 0.0, 0.0, 0.0, 0.0<br/>0.0, 0.0]<br/>class = DrDoS_UDP>, fillcolor="#e9de5a"] ;
265 -> 266 ;
267 [label=<entropy = 0.0<br/>samples = 0.0%<br/>value = [0.0, 0.0, 0.0, 0.0, 0.0, 1.0, 0.0, 0.0, 0.0, 0.0<br/>0.0, 0.0]<br/>class = DrDoS_DNS>, fillcolor="#39e5d7"] ;
266 -> 267 ;
268 [label=<entropy = 0.0<br/>samples = 0.0%<br/>value = [0.0, 1.0, 0.0, 0.0, 0.0, 0.0, 0.0, 0.0, 0.0, 0.0<br/>0.0, 0.0]<br/>class = DrDoS_UDP>, fillcolor="#e5d739"] ;
266 -> 268 ;
269 [label=<entropy = 0.0<br/>samples = 0.0%<br/>value = [0.0, 1.0, 0.0, 0.0, 0.0, 0.0, 0.0, 0.0, 0.0, 0.0<br/>0.0, 0.0]<br/>class = DrDoS_UDP>, fillcolor="#e5d739"] ;
265 -> 269 ;
270 [label=<Flow Bytes/s &le; 204000000.0<br/>entropy = 0.722<br/>samples = 0.0%<br/>value = [0.0, 0.8, 0.0, 0.0, 0.0, 0.2, 0.0, 0.0, 0.0, 0.0<br/>0.0, 0.0]<br/>class = DrDoS_UDP>, fillcolor="#ece16a"] ;
264 -> 270 ;
271 [label=<entropy = 0.0<br/>samples = 0.0%<br/>value = [0.0, 1.0, 0.0, 0.0, 0.0, 0.0, 0.0, 0.0, 0.0, 0.0<br/>0.0, 0.0]<br/>class = DrDoS_UDP>, fillcolor="#e5d739"] ;
270 -> 271 ;
272 [label=<entropy = 0.918<br/>samples = 0.0%<br/>value = [0.0, 0.667, 0.0, 0.0, 0.0, 0.333, 0.0, 0.0, 0.0, 0.0<br/>0.0, 0.0]<br/>class = DrDoS_UDP>, fillcolor="#f2eb9c"] ;
270 -> 272 ;
273 [label=<entropy = 0.0<br/>samples = 0.0%<br/>value = [0.0, 0.0, 0.0, 0.0, 0.0, 1.0, 0.0, 0.0, 0.0, 0.0<br/>0.0, 0.0]<br/>class = DrDoS_DNS>, fillcolor="#39e5d7"] ;
261 -> 273 ;
274 [label=<Avg Packet Size &le; 567.0<br/>entropy = 0.918<br/>samples = 0.0%<br/>value = [0.0, 0.667, 0.0, 0.0, 0.0, 0.0, 0.0, 0.0, 0.0, 0.0<br/>0.0, 0.333]<br/>class = DrDoS_UDP>, fillcolor="#f2eb9c"] ;
260 -> 274 ;
275 [label=<entropy = 0.0<br/>samples = 0.0%<br/>value = [0.0, 0.0, 0.0, 0.0, 0.0, 0.0, 0.0, 0.0, 0.0, 0.0<br/>0.0, 1.0]<br/>class = TFTP>, fillcolor="#e53947"] ;
274 -> 275 ;
276 [label=<Fwd Seg Size Min &le; 17.0<br/>entropy = 0.503<br/>samples = 0.0%<br/>value = [0.0, 0.889, 0.0, 0.0, 0.0, 0.0, 0.0, 0.0, 0.0, 0.0<br/>0.0, 0.111]<br/>class = DrDoS_UDP>, fillcolor="#e8dc52"] ;
274 -> 276 ;
277 [label=<entropy = 0.0<br/>samples = 0.0%<br/>value = [0.0, 1.0, 0.0, 0.0, 0.0, 0.0, 0.0, 0.0, 0.0, 0.0<br/>0.0, 0.0]<br/>class = DrDoS_UDP>, fillcolor="#e5d739"] ;
276 -> 277 ;
278 [label=<entropy = 1.0<br/>samples = 0.0%<br/>value = [0.0, 0.5, 0.0, 0.0, 0.0, 0.0, 0.0, 0.0, 0.0, 0.0<br/>0.0, 0.5]<br/>class = DrDoS_UDP>, fillcolor="#ffffff"] ;
276 -> 278 ;
279 [label=<entropy = 0.0<br/>samples = 0.0%<br/>value = [0.0, 1.0, 0.0, 0.0, 0.0, 0.0, 0.0, 0.0, 0.0, 0.0<br/>0.0, 0.0]<br/>class = DrDoS_UDP>, fillcolor="#e5d739"] ;
259 -> 279 ;
280 [label=<Fwd IAT Min &le; 41.5<br/>entropy = 1.053<br/>samples = 0.6%<br/>value = [0.005, 0.453, 0.0, 0.0, 0.001, 0.54, 0.001, 0.0, 0.0<br/>0.0, 0.0, 0.0]<br/>class = DrDoS_DNS>, fillcolor="#dffbf9"] ;
8 -> 280 ;
281 [label=<Avg Packet Size &le; 208.688<br/>entropy = 0.507<br/>samples = 0.2%<br/>value = [0.013, 0.075, 0.0, 0.0, 0.003, 0.91, 0.0, 0.0, 0.0<br/>0.0, 0.0, 0.0]<br/>class = DrDoS_DNS>, fillcolor="#4ce8db"] ;
280 -> 281 ;
282 [label=<Avg Packet Size &le; 18.0<br/>entropy = 0.555<br/>samples = 0.0%<br/>value = [0.129, 0.871, 0.0, 0.0, 0.0, 0.0, 0.0, 0.0, 0.0, 0.0<br/>0.0, 0.0]<br/>class = DrDoS_UDP>, fillcolor="#e9dd56"] ;
281 -> 282 ;
283 [label=<entropy = 0.0<br/>samples = 0.0%<br/>value = [1.0, 0.0, 0.0, 0.0, 0.0, 0.0, 0.0, 0.0, 0.0, 0.0<br/>0.0, 0.0]<br/>class = DrDoS_SSDP>, fillcolor="#e58139"] ;
282 -> 283 ;
284 [label=<entropy = 0.0<br/>samples = 0.0%<br/>value = [0.0, 1.0, 0.0, 0.0, 0.0, 0.0, 0.0, 0.0, 0.0, 0.0<br/>0.0, 0.0]<br/>class = DrDoS_UDP>, fillcolor="#e5d739"] ;
282 -> 284 ;
285 [label=<Fwd IAT Mean &le; 5.595<br/>entropy = 0.123<br/>samples = 0.2%<br/>value = [0.003, 0.008, 0.0, 0.0, 0.003, 0.986, 0.0, 0.0, 0.0<br/>0.0, 0.0, 0.0]<br/>class = DrDoS_DNS>, fillcolor="#3ce5d8"] ;
281 -> 285 ;
286 [label=<entropy = 0.0<br/>samples = 0.0%<br/>value = [1.0, 0.0, 0.0, 0.0, 0.0, 0.0, 0.0, 0.0, 0.0, 0.0<br/>0.0, 0.0]<br/>class = DrDoS_SSDP>, fillcolor="#e58139"] ;
285 -> 286 ;
287 [label=<Flow Packets/s &le; 63508.064<br/>entropy = 0.096<br/>samples = 0.2%<br/>value = [0.0, 0.008, 0.0, 0.0, 0.003, 0.989, 0.0, 0.0, 0.0<br/>0.0, 0.0, 0.0]<br/>class = DrDoS_DNS>, fillcolor="#3be5d7"] ;
285 -> 287 ;
288 [label=<Flow Packets/s &le; 49390.244<br/>entropy = 0.182<br/>samples = 0.1%<br/>value = [0.0, 0.028, 0.0, 0.0, 0.0, 0.972, 0.0, 0.0, 0.0, 0.0<br/>0.0, 0.0]<br/>class = DrDoS_DNS>, fillcolor="#3fe6d8"] ;
287 -> 288 ;
289 [label=<Flow Bytes/s &le; 13146341.0<br/>entropy = 0.353<br/>samples = 0.0%<br/>value = [0.0, 0.067, 0.0, 0.0, 0.0, 0.933, 0.0, 0.0, 0.0, 0.0<br/>0.0, 0.0]<br/>class = DrDoS_DNS>, fillcolor="#47e7da"] ;
288 -> 289 ;
290 [label=<entropy = 0.0<br/>samples = 0.0%<br/>value = [0.0, 0.0, 0.0, 0.0, 0.0, 1.0, 0.0, 0.0, 0.0, 0.0<br/>0.0, 0.0]<br/>class = DrDoS_DNS>, fillcolor="#39e5d7"] ;
289 -> 290 ;
291 [label=<entropy = 0.0<br/>samples = 0.0%<br/>value = [0.0, 1.0, 0.0, 0.0, 0.0, 0.0, 0.0, 0.0, 0.0, 0.0<br/>0.0, 0.0]<br/>class = DrDoS_UDP>, fillcolor="#e5d739"] ;
289 -> 291 ;
292 [label=<Fwd IAT Total &le; 36.5<br/>entropy = 0.149<br/>samples = 0.0%<br/>value = [0.0, 0.021, 0.0, 0.0, 0.0, 0.979, 0.0, 0.0, 0.0, 0.0<br/>0.0, 0.0]<br/>class = DrDoS_DNS>, fillcolor="#3de6d8"] ;
288 -> 292 ;
293 [label=<Fwd Seg Size Min &le; 17.0<br/>entropy = 0.235<br/>samples = 0.0%<br/>value = [0.0, 0.038, 0.0, 0.0, 0.0, 0.962, 0.0, 0.0, 0.0, 0.0<br/>0.0, 0.0]<br/>class = DrDoS_DNS>, fillcolor="#41e6d9"] ;
292 -> 293 ;
294 [label=<entropy = 0.0<br/>samples = 0.0%<br/>value = [0.0, 0.0, 0.0, 0.0, 0.0, 1.0, 0.0, 0.0, 0.0, 0.0<br/>0.0, 0.0]<br/>class = DrDoS_DNS>, fillcolor="#39e5d7"] ;
293 -> 294 ;
295 [label=<Avg Packet Size &le; 254.25<br/>entropy = 0.391<br/>samples = 0.0%<br/>value = [0.0, 0.077, 0.0, 0.0, 0.0, 0.923, 0.0, 0.0, 0.0, 0.0<br/>0.0, 0.0]<br/>class = DrDoS_DNS>, fillcolor="#49e7da"] ;
293 -> 295 ;
296 [label=<entropy = 0.0<br/>samples = 0.0%<br/>value = [0.0, 1.0, 0.0, 0.0, 0.0, 0.0, 0.0, 0.0, 0.0, 0.0<br/>0.0, 0.0]<br/>class = DrDoS_UDP>, fillcolor="#e5d739"] ;
295 -> 296 ;
297 [label=<Flow Bytes/s &le; 16252525.0<br/>entropy = 0.242<br/>samples = 0.0%<br/>value = [0.0, 0.04, 0.0, 0.0, 0.0, 0.96, 0.0, 0.0, 0.0, 0.0<br/>0.0, 0.0]<br/>class = DrDoS_DNS>, fillcolor="#41e6d9"] ;
295 -> 297 ;
298 [label=<entropy = 0.0<br/>samples = 0.0%<br/>value = [0.0, 0.0, 0.0, 0.0, 0.0, 1.0, 0.0, 0.0, 0.0, 0.0<br/>0.0, 0.0]<br/>class = DrDoS_DNS>, fillcolor="#39e5d7"] ;
297 -> 298 ;
299 [label=<entropy = 0.0<br/>samples = 0.0%<br/>value = [0.0, 1.0, 0.0, 0.0, 0.0, 0.0, 0.0, 0.0, 0.0, 0.0<br/>0.0, 0.0]<br/>class = DrDoS_UDP>, fillcolor="#e5d739"] ;
297 -> 299 ;
300 [label=<entropy = 0.0<br/>samples = 0.0%<br/>value = [0.0, 0.0, 0.0, 0.0, 0.0, 1.0, 0.0, 0.0, 0.0, 0.0<br/>0.0, 0.0]<br/>class = DrDoS_DNS>, fillcolor="#39e5d7"] ;
292 -> 300 ;
301 [label=<Fwd IAT Mean &le; 24.5<br/>entropy = 0.037<br/>samples = 0.1%<br/>value = [0.0, 0.0, 0.0, 0.0, 0.004, 0.996, 0.0, 0.0, 0.0, 0.0<br/>0.0, 0.0]<br/>class = DrDoS_DNS>, fillcolor="#3ae5d7"] ;
287 -> 301 ;
302 [label=<entropy = 0.0<br/>samples = 0.1%<br/>value = [0.0, 0.0, 0.0, 0.0, 0.0, 1.0, 0.0, 0.0, 0.0, 0.0<br/>0.0, 0.0]<br/>class = DrDoS_DNS>, fillcolor="#39e5d7"] ;
301 -> 302 ;
303 [label=<Fwd IAT Total &le; 25.5<br/>entropy = 0.109<br/>samples = 0.0%<br/>value = [0.0, 0.0, 0.0, 0.0, 0.014, 0.986, 0.0, 0.0, 0.0, 0.0<br/>0.0, 0.0]<br/>class = DrDoS_DNS>, fillcolor="#3ce5d8"] ;
301 -> 303 ;
304 [label=<Fwd Packet Length Max &le; 262.5<br/>entropy = 0.65<br/>samples = 0.0%<br/>value = [0.0, 0.0, 0.0, 0.0, 0.167, 0.833, 0.0, 0.0, 0.0, 0.0<br/>0.0, 0.0]<br/>class = DrDoS_DNS>, fillcolor="#61eadf"] ;
303 -> 304 ;
305 [label=<entropy = 0.0<br/>samples = 0.0%<br/>value = [0.0, 0.0, 0.0, 0.0, 0.0, 1.0, 0.0, 0.0, 0.0, 0.0<br/>0.0, 0.0]<br/>class = DrDoS_DNS>, fillcolor="#39e5d7"] ;
304 -> 305 ;
306 [label=<entropy = 0.0<br/>samples = 0.0%<br/>value = [0.0, 0.0, 0.0, 0.0, 1.0, 0.0, 0.0, 0.0, 0.0, 0.0<br/>0.0, 0.0]<br/>class = DrDoS_LDAP>, fillcolor="#39e581"] ;
304 -> 306 ;
307 [label=<entropy = 0.0<br/>samples = 0.0%<br/>value = [0.0, 0.0, 0.0, 0.0, 0.0, 1.0, 0.0, 0.0, 0.0, 0.0<br/>0.0, 0.0]<br/>class = DrDoS_DNS>, fillcolor="#39e5d7"] ;
303 -> 307 ;
308 [label=<Fwd Seg Size Min &le; 38.5<br/>entropy = 0.992<br/>samples = 0.5%<br/>value = [0.002, 0.614, 0.0, 0.0, 0.0, 0.383, 0.001, 0.0, 0.0<br/>0.0, 0.0, 0.0]<br/>class = DrDoS_UDP>, fillcolor="#f5f0b5"] ;
280 -> 308 ;
309 [label=<Fwd IAT Mean &le; 49.5<br/>entropy = 0.925<br/>samples = 0.4%<br/>value = [0.002, 0.69, 0.0, 0.0, 0.0, 0.306, 0.001, 0.0, 0.0<br/>0.0, 0.0, 0.0]<br/>class = DrDoS_UDP>, fillcolor="#f1e992"] ;
308 -> 309 ;
310 [label=<Fwd Header Length &le; 30.0<br/>entropy = 0.839<br/>samples = 0.3%<br/>value = [0.003, 0.755, 0.0, 0.0, 0.0, 0.24, 0.002, 0.0, 0.0<br/>0.0, 0.0, 0.0]<br/>class = DrDoS_UDP>, fillcolor="#ede479"] ;
309 -> 310 ;
311 [label=<Flow Duration &le; 47.5<br/>entropy = 0.758<br/>samples = 0.2%<br/>value = [0.002, 0.798, 0.0, 0.0, 0.0, 0.198, 0.002, 0.0, 0.0<br/>0.0, 0.0, 0.0]<br/>class = DrDoS_UDP>, fillcolor="#ece16b"] ;
310 -> 311 ;
312 [label=<Flow Duration &le; 45.5<br/>entropy = 0.641<br/>samples = 0.2%<br/>value = [0.0, 0.837, 0.0, 0.0, 0.0, 0.163, 0.0, 0.0, 0.0, 0.0<br/>0.0, 0.0]<br/>class = DrDoS_UDP>, fillcolor="#eadf60"] ;
311 -> 312 ;
313 [label=<Packet Length Min &le; 174.5<br/>entropy = 0.787<br/>samples = 0.1%<br/>value = [0.0, 0.765, 0.0, 0.0, 0.0, 0.235, 0.0, 0.0, 0.0, 0.0<br/>0.0, 0.0]<br/>class = DrDoS_UDP>, fillcolor="#ede376"] ;
312 -> 313 ;
314 [label=<entropy = 0.0<br/>samples = 0.0%<br/>value = [0.0, 1.0, 0.0, 0.0, 0.0, 0.0, 0.0, 0.0, 0.0, 0.0<br/>0.0, 0.0]<br/>class = DrDoS_UDP>, fillcolor="#e5d739"] ;
313 -> 314 ;
315 [label=<Fwd IAT Total &le; 43.5<br/>entropy = 0.971<br/>samples = 0.0%<br/>value = [0.0, 0.6, 0.0, 0.0, 0.0, 0.4, 0.0, 0.0, 0.0, 0.0<br/>0.0, 0.0]<br/>class = DrDoS_UDP>, fillcolor="#f6f2bd"] ;
313 -> 315 ;
316 [label=<Flow IAT Mean &le; 42.5<br/>entropy = 0.971<br/>samples = 0.0%<br/>value = [0.0, 0.4, 0.0, 0.0, 0.0, 0.6, 0.0, 0.0, 0.0, 0.0<br/>0.0, 0.0]<br/>class = DrDoS_DNS>, fillcolor="#bdf6f2"] ;
315 -> 316 ;
317 [label=<entropy = 0.811<br/>samples = 0.0%<br/>value = [0.0, 0.75, 0.0, 0.0, 0.0, 0.25, 0.0, 0.0, 0.0, 0.0<br/>0.0, 0.0]<br/>class = DrDoS_UDP>, fillcolor="#eee47b"] ;
316 -> 317 ;
318 [label=<Flow Bytes/s &le; 12488372.0<br/>entropy = 0.845<br/>samples = 0.0%<br/>value = [0.0, 0.273, 0.0, 0.0, 0.0, 0.727, 0.0, 0.0, 0.0, 0.0<br/>0.0, 0.0]<br/>class = DrDoS_DNS>, fillcolor="#83efe6"] ;
316 -> 318 ;
319 [label=<Avg Packet Size &le; 372.0<br/>entropy = 0.503<br/>samples = 0.0%<br/>value = [0.0, 0.111, 0.0, 0.0, 0.0, 0.889, 0.0, 0.0, 0.0, 0.0<br/>0.0, 0.0]<br/>class = DrDoS_DNS>, fillcolor="#52e8dc"] ;
318 -> 319 ;
320 [label=<entropy = 0.0<br/>samples = 0.0%<br/>value = [0.0, 0.0, 0.0, 0.0, 0.0, 1.0, 0.0, 0.0, 0.0, 0.0<br/>0.0, 0.0]<br/>class = DrDoS_DNS>, fillcolor="#39e5d7"] ;
319 -> 320 ;
321 [label=<entropy = 0.811<br/>samples = 0.0%<br/>value = [0.0, 0.25, 0.0, 0.0, 0.0, 0.75, 0.0, 0.0, 0.0, 0.0<br/>0.0, 0.0]<br/>class = DrDoS_DNS>, fillcolor="#7beee4"] ;
319 -> 321 ;
322 [label=<entropy = 0.0<br/>samples = 0.0%<br/>value = [0.0, 1.0, 0.0, 0.0, 0.0, 0.0, 0.0, 0.0, 0.0, 0.0<br/>0.0, 0.0]<br/>class = DrDoS_UDP>, fillcolor="#e5d739"] ;
318 -> 322 ;
323 [label=<Fwd IAT Min &le; 44.5<br/>entropy = 0.93<br/>samples = 0.0%<br/>value = [0.0, 0.655, 0.0, 0.0, 0.0, 0.345, 0.0, 0.0, 0.0, 0.0<br/>0.0, 0.0]<br/>class = DrDoS_UDP>, fillcolor="#f3eca2"] ;
315 -> 323 ;
324 [label=<Fwd Header Length &le; 8.0<br/>entropy = 0.959<br/>samples = 0.0%<br/>value = [0.0, 0.619, 0.0, 0.0, 0.0, 0.381, 0.0, 0.0, 0.0, 0.0<br/>0.0, 0.0]<br/>class = DrDoS_UDP>, fillcolor="#f5f0b3"] ;
323 -> 324 ;
325 [label=<Fwd Packet Length Max &le; 268.5<br/>entropy = 0.837<br/>samples = 0.0%<br/>value = [0.0, 0.733, 0.0, 0.0, 0.0, 0.267, 0.0, 0.0, 0.0, 0.0<br/>0.0, 0.0]<br/>class = DrDoS_UDP>, fillcolor="#eee681"] ;
324 -> 325 ;
326 [label=<entropy = 0.918<br/>samples = 0.0%<br/>value = [0.0, 0.333, 0.0, 0.0, 0.0, 0.667, 0.0, 0.0, 0.0, 0.0<br/>0.0, 0.0]<br/>class = DrDoS_DNS>, fillcolor="#9cf2eb"] ;
325 -> 326 ;
327 [label=<entropy = 0.0<br/>samples = 0.0%<br/>value = [0.0, 1.0, 0.0, 0.0, 0.0, 0.0, 0.0, 0.0, 0.0, 0.0<br/>0.0, 0.0]<br/>class = DrDoS_UDP>, fillcolor="#e5d739"] ;
325 -> 327 ;
328 [label=<Fwd Seg Size Min &le; 11.0<br/>entropy = 0.918<br/>samples = 0.0%<br/>value = [0.0, 0.333, 0.0, 0.0, 0.0, 0.667, 0.0, 0.0, 0.0, 0.0<br/>0.0, 0.0]<br/>class = DrDoS_DNS>, fillcolor="#9cf2eb"] ;
324 -> 328 ;
329 [label=<entropy = 0.0<br/>samples = 0.0%<br/>value = [0.0, 0.0, 0.0, 0.0, 0.0, 1.0, 0.0, 0.0, 0.0, 0.0<br/>0.0, 0.0]<br/>class = DrDoS_DNS>, fillcolor="#39e5d7"] ;
328 -> 329 ;
330 [label=<entropy = 0.918<br/>samples = 0.0%<br/>value = [0.0, 0.667, 0.0, 0.0, 0.0, 0.333, 0.0, 0.0, 0.0, 0.0<br/>0.0, 0.0]<br/>class = DrDoS_UDP>, fillcolor="#f2eb9c"] ;
328 -> 330 ;
331 [label=<Packet Length Min &le; 239.0<br/>entropy = 0.908<br/>samples = 0.0%<br/>value = [0.0, 0.676, 0.0, 0.0, 0.0, 0.324, 0.0, 0.0, 0.0, 0.0<br/>0.0, 0.0]<br/>class = DrDoS_UDP>, fillcolor="#f1ea98"] ;
323 -> 331 ;
332 [label=<entropy = 0.0<br/>samples = 0.0%<br/>value = [0.0, 0.0, 0.0, 0.0, 0.0, 1.0, 0.0, 0.0, 0.0, 0.0<br/>0.0, 0.0]<br/>class = DrDoS_DNS>, fillcolor="#39e5d7"] ;
331 -> 332 ;
333 [label=<Packet Length Min &le; 277.0<br/>entropy = 0.25<br/>samples = 0.0%<br/>value = [0.0, 0.958, 0.0, 0.0, 0.0, 0.042, 0.0, 0.0, 0.0, 0.0<br/>0.0, 0.0]<br/>class = DrDoS_UDP>, fillcolor="#e6d942"] ;
331 -> 333 ;
334 [label=<entropy = 0.592<br/>samples = 0.0%<br/>value = [0.0, 0.857, 0.0, 0.0, 0.0, 0.143, 0.0, 0.0, 0.0, 0.0<br/>0.0, 0.0]<br/>class = DrDoS_UDP>, fillcolor="#e9de5a"] ;
333 -> 334 ;
335 [label=<entropy = 0.0<br/>samples = 0.0%<br/>value = [0.0, 1.0, 0.0, 0.0, 0.0, 0.0, 0.0, 0.0, 0.0, 0.0<br/>0.0, 0.0]<br/>class = DrDoS_UDP>, fillcolor="#e5d739"] ;
333 -> 335 ;
336 [label=<Fwd IAT Min &le; 46.5<br/>entropy = 0.525<br/>samples = 0.1%<br/>value = [0.0, 0.881, 0.0, 0.0, 0.0, 0.119, 0.0, 0.0, 0.0, 0.0<br/>0.0, 0.0]<br/>class = DrDoS_UDP>, fillcolor="#e8dc54"] ;
312 -> 336 ;
337 [label=<Packet Length Min &le; 121.5<br/>entropy = 0.581<br/>samples = 0.0%<br/>value = [0.0, 0.861, 0.0, 0.0, 0.0, 0.139, 0.0, 0.0, 0.0, 0.0<br/>0.0, 0.0]<br/>class = DrDoS_UDP>, fillcolor="#e9dd59"] ;
336 -> 337 ;
338 [label=<entropy = 0.0<br/>samples = 0.0%<br/>value = [0.0, 1.0, 0.0, 0.0, 0.0, 0.0, 0.0, 0.0, 0.0, 0.0<br/>0.0, 0.0]<br/>class = DrDoS_UDP>, fillcolor="#e5d739"] ;
337 -> 338 ;
339 [label=<Fwd Seg Size Min &le; -531359488.5<br/>entropy = 0.722<br/>samples = 0.0%<br/>value = [0.0, 0.8, 0.0, 0.0, 0.0, 0.2, 0.0, 0.0, 0.0, 0.0<br/>0.0, 0.0]<br/>class = DrDoS_UDP>, fillcolor="#ece16a"] ;
337 -> 339 ;
340 [label=<entropy = 0.0<br/>samples = 0.0%<br/>value = [0.0, 0.0, 0.0, 0.0, 0.0, 1.0, 0.0, 0.0, 0.0, 0.0<br/>0.0, 0.0]<br/>class = DrDoS_DNS>, fillcolor="#39e5d7"] ;
339 -> 340 ;
341 [label=<Fwd Seg Size Min &le; -0.5<br/>entropy = 0.644<br/>samples = 0.0%<br/>value = [0.0, 0.836, 0.0, 0.0, 0.0, 0.164, 0.0, 0.0, 0.0, 0.0<br/>0.0, 0.0]<br/>class = DrDoS_UDP>, fillcolor="#eadf60"] ;
339 -> 341 ;
342 [label=<Packet Length Min &le; 263.0<br/>entropy = 0.414<br/>samples = 0.0%<br/>value = [0.0, 0.917, 0.0, 0.0, 0.0, 0.083, 0.0, 0.0, 0.0, 0.0<br/>0.0, 0.0]<br/>class = DrDoS_UDP>, fillcolor="#e7db4b"] ;
341 -> 342 ;
343 [label=<entropy = 0.0<br/>samples = 0.0%<br/>value = [0.0, 1.0, 0.0, 0.0, 0.0, 0.0, 0.0, 0.0, 0.0, 0.0<br/>0.0, 0.0]<br/>class = DrDoS_UDP>, fillcolor="#e5d739"] ;
342 -> 343 ;
344 [label=<entropy = 0.567<br/>samples = 0.0%<br/>value = [0.0, 0.867, 0.0, 0.0, 0.0, 0.133, 0.0, 0.0, 0.0, 0.0<br/>0.0, 0.0]<br/>class = DrDoS_UDP>, fillcolor="#e9dd57"] ;
342 -> 344 ;
345 [label=<Packet Length Min &le; 331.0<br/>entropy = 0.74<br/>samples = 0.0%<br/>value = [0.0, 0.791, 0.0, 0.0, 0.0, 0.209, 0.0, 0.0, 0.0, 0.0<br/>0.0, 0.0]<br/>class = DrDoS_UDP>, fillcolor="#ece26d"] ;
341 -> 345 ;
346 [label=<entropy = 0.811<br/>samples = 0.0%<br/>value = [0.0, 0.75, 0.0, 0.0, 0.0, 0.25, 0.0, 0.0, 0.0, 0.0<br/>0.0, 0.0]<br/>class = DrDoS_UDP>, fillcolor="#eee47b"] ;
345 -> 346 ;
347 [label=<entropy = 0.0<br/>samples = 0.0%<br/>value = [0.0, 1.0, 0.0, 0.0, 0.0, 0.0, 0.0, 0.0, 0.0, 0.0<br/>0.0, 0.0]<br/>class = DrDoS_UDP>, fillcolor="#e5d739"] ;
345 -> 347 ;
348 [label=<Packet Length Min &le; 127.0<br/>entropy = 0.459<br/>samples = 0.0%<br/>value = [0.0, 0.903, 0.0, 0.0, 0.0, 0.097, 0.0, 0.0, 0.0, 0.0<br/>0.0, 0.0]<br/>class = DrDoS_UDP>, fillcolor="#e8db4e"] ;
336 -> 348 ;
349 [label=<entropy = 0.0<br/>samples = 0.0%<br/>value = [0.0, 1.0, 0.0, 0.0, 0.0, 0.0, 0.0, 0.0, 0.0, 0.0<br/>0.0, 0.0]<br/>class = DrDoS_UDP>, fillcolor="#e5d739"] ;
348 -> 349 ;
350 [label=<Packet Length Min &le; 232.5<br/>entropy = 0.636<br/>samples = 0.0%<br/>value = [0.0, 0.839, 0.0, 0.0, 0.0, 0.161, 0.0, 0.0, 0.0, 0.0<br/>0.0, 0.0]<br/>class = DrDoS_UDP>, fillcolor="#eadf5f"] ;
348 -> 350 ;
351 [label=<Packet Length Min &le; 209.5<br/>entropy = 0.932<br/>samples = 0.0%<br/>value = [0.0, 0.652, 0.0, 0.0, 0.0, 0.348, 0.0, 0.0, 0.0, 0.0<br/>0.0, 0.0]<br/>class = DrDoS_UDP>, fillcolor="#f3eca3"] ;
350 -> 351 ;
352 [label=<Fwd Seg Size Min &le; -0.5<br/>entropy = 0.65<br/>samples = 0.0%<br/>value = [0.0, 0.833, 0.0, 0.0, 0.0, 0.167, 0.0, 0.0, 0.0, 0.0<br/>0.0, 0.0]<br/>class = DrDoS_UDP>, fillcolor="#eadf61"] ;
351 -> 352 ;
353 [label=<entropy = 0.0<br/>samples = 0.0%<br/>value = [0.0, 1.0, 0.0, 0.0, 0.0, 0.0, 0.0, 0.0, 0.0, 0.0<br/>0.0, 0.0]<br/>class = DrDoS_UDP>, fillcolor="#e5d739"] ;
352 -> 353 ;
354 [label=<entropy = 0.75<br/>samples = 0.0%<br/>value = [0.0, 0.786, 0.0, 0.0, 0.0, 0.214, 0.0, 0.0, 0.0, 0.0<br/>0.0, 0.0]<br/>class = DrDoS_UDP>, fillcolor="#ece26f"] ;
352 -> 354 ;
355 [label=<entropy = 0.0<br/>samples = 0.0%<br/>value = [0.0, 0.0, 0.0, 0.0, 0.0, 1.0, 0.0, 0.0, 0.0, 0.0<br/>0.0, 0.0]<br/>class = DrDoS_DNS>, fillcolor="#39e5d7"] ;
351 -> 355 ;
356 [label=<Fwd Header Length &le; 22.0<br/>entropy = 0.196<br/>samples = 0.0%<br/>value = [0.0, 0.97, 0.0, 0.0, 0.0, 0.03, 0.0, 0.0, 0.0, 0.0<br/>0.0, 0.0]<br/>class = DrDoS_UDP>, fillcolor="#e6d83f"] ;
350 -> 356 ;
357 [label=<entropy = 0.0<br/>samples = 0.0%<br/>value = [0.0, 1.0, 0.0, 0.0, 0.0, 0.0, 0.0, 0.0, 0.0, 0.0<br/>0.0, 0.0]<br/>class = DrDoS_UDP>, fillcolor="#e5d739"] ;
356 -> 357 ;
358 [label=<Fwd Packet Length Max &le; 303.0<br/>entropy = 0.592<br/>samples = 0.0%<br/>value = [0.0, 0.857, 0.0, 0.0, 0.0, 0.143, 0.0, 0.0, 0.0, 0.0<br/>0.0, 0.0]<br/>class = DrDoS_UDP>, fillcolor="#e9de5a"] ;
356 -> 358 ;
359 [label=<entropy = 1.0<br/>samples = 0.0%<br/>value = [0.0, 0.5, 0.0, 0.0, 0.0, 0.5, 0.0, 0.0, 0.0, 0.0<br/>0.0, 0.0]<br/>class = DrDoS_UDP>, fillcolor="#ffffff"] ;
358 -> 359 ;
360 [label=<entropy = 0.0<br/>samples = 0.0%<br/>value = [0.0, 1.0, 0.0, 0.0, 0.0, 0.0, 0.0, 0.0, 0.0, 0.0<br/>0.0, 0.0]<br/>class = DrDoS_UDP>, fillcolor="#e5d739"] ;
358 -> 360 ;
361 [label=<Flow Packets/s &le; 41241.498<br/>entropy = 0.924<br/>samples = 0.1%<br/>value = [0.006, 0.728, 0.0, 0.0, 0.0, 0.26, 0.006, 0.0, 0.0<br/>0.0, 0.0, 0.0]<br/>class = DrDoS_UDP>, fillcolor="#efe682"] ;
311 -> 361 ;
362 [label=<Avg Packet Size &le; 199.5<br/>entropy = 0.914<br/>samples = 0.0%<br/>value = [0.0, 0.671, 0.0, 0.0, 0.0, 0.329, 0.0, 0.0, 0.0, 0.0<br/>0.0, 0.0]<br/>class = DrDoS_UDP>, fillcolor="#f2eb9a"] ;
361 -> 362 ;
363 [label=<entropy = 0.0<br/>samples = 0.0%<br/>value = [0.0, 1.0, 0.0, 0.0, 0.0, 0.0, 0.0, 0.0, 0.0, 0.0<br/>0.0, 0.0]<br/>class = DrDoS_UDP>, fillcolor="#e5d739"] ;
362 -> 363 ;
364 [label=<Avg Packet Size &le; 270.75<br/>entropy = 0.991<br/>samples = 0.0%<br/>value = [0.0, 0.444, 0.0, 0.0, 0.0, 0.556, 0.0, 0.0, 0.0, 0.0<br/>0.0, 0.0]<br/>class = DrDoS_DNS>, fillcolor="#d7faf7"] ;
362 -> 364 ;
365 [label=<entropy = 0.0<br/>samples = 0.0%<br/>value = [0.0, 0.0, 0.0, 0.0, 0.0, 1.0, 0.0, 0.0, 0.0, 0.0<br/>0.0, 0.0]<br/>class = DrDoS_DNS>, fillcolor="#39e5d7"] ;
364 -> 365 ;
366 [label=<Packet Length Min &le; 340.0<br/>entropy = 0.998<br/>samples = 0.0%<br/>value = [0.0, 0.526, 0.0, 0.0, 0.0, 0.474, 0.0, 0.0, 0.0, 0.0<br/>0.0, 0.0]<br/>class = DrDoS_UDP>, fillcolor="#fcfbeb"] ;
364 -> 366 ;
367 [label=<Fwd Header Length &le; -531359489.0<br/>entropy = 0.994<br/>samples = 0.0%<br/>value = [0.0, 0.455, 0.0, 0.0, 0.0, 0.545, 0.0, 0.0, 0.0, 0.0<br/>0.0, 0.0]<br/>class = DrDoS_DNS>, fillcolor="#defbf8"] ;
366 -> 367 ;
368 [label=<entropy = 0.0<br/>samples = 0.0%<br/>value = [0.0, 0.0, 0.0, 0.0, 0.0, 1.0, 0.0, 0.0, 0.0, 0.0<br/>0.0, 0.0]<br/>class = DrDoS_DNS>, fillcolor="#39e5d7"] ;
367 -> 368 ;
369 [label=<Fwd Seg Size Min &le; 4.0<br/>entropy = 0.999<br/>samples = 0.0%<br/>value = [0.0, 0.484, 0.0, 0.0, 0.0, 0.516, 0.0, 0.0, 0.0, 0.0<br/>0.0, 0.0]<br/>class = DrDoS_DNS>, fillcolor="#f3fdfc"] ;
367 -> 369 ;
370 [label=<entropy = 0.971<br/>samples = 0.0%<br/>value = [0.0, 0.6, 0.0, 0.0, 0.0, 0.4, 0.0, 0.0, 0.0, 0.0<br/>0.0, 0.0]<br/>class = DrDoS_UDP>, fillcolor="#f6f2bd"] ;
369 -> 370 ;
371 [label=<entropy = 0.845<br/>samples = 0.0%<br/>value = [0.0, 0.273, 0.0, 0.0, 0.0, 0.727, 0.0, 0.0, 0.0, 0.0<br/>0.0, 0.0]<br/>class = DrDoS_DNS>, fillcolor="#83efe6"] ;
369 -> 371 ;
372 [label=<entropy = 0.0<br/>samples = 0.0%<br/>value = [0.0, 1.0, 0.0, 0.0, 0.0, 0.0, 0.0, 0.0, 0.0, 0.0<br/>0.0, 0.0]<br/>class = DrDoS_UDP>, fillcolor="#e5d739"] ;
366 -> 372 ;
373 [label=<Fwd Packet Length Max &le; 182.5<br/>entropy = 0.893<br/>samples = 0.0%<br/>value = [0.01, 0.773, 0.0, 0.0, 0.0, 0.206, 0.01, 0.0, 0.0<br/>0.0, 0.0, 0.0]<br/>class = DrDoS_UDP>, fillcolor="#ece272"] ;
361 -> 373 ;
374 [label=<Flow Bytes/s &le; 500000.0<br/>entropy = 0.156<br/>samples = 0.0%<br/>value = [0.023, 0.977, 0.0, 0.0, 0.0, 0.0, 0.0, 0.0, 0.0, 0.0<br/>0.0, 0.0]<br/>class = DrDoS_UDP>, fillcolor="#e6d83e"] ;
373 -> 374 ;
375 [label=<entropy = 0.0<br/>samples = 0.0%<br/>value = [1.0, 0.0, 0.0, 0.0, 0.0, 0.0, 0.0, 0.0, 0.0, 0.0<br/>0.0, 0.0]<br/>class = DrDoS_SSDP>, fillcolor="#e58139"] ;
374 -> 375 ;
376 [label=<entropy = 0.0<br/>samples = 0.0%<br/>value = [0.0, 1.0, 0.0, 0.0, 0.0, 0.0, 0.0, 0.0, 0.0, 0.0<br/>0.0, 0.0]<br/>class = DrDoS_UDP>, fillcolor="#e5d739"] ;
374 -> 376 ;
377 [label=<Packet Length Min &le; 235.0<br/>entropy = 1.078<br/>samples = 0.0%<br/>value = [0.0, 0.604, 0.0, 0.0, 0.0, 0.377, 0.019, 0.0, 0.0<br/>0.0, 0.0, 0.0]<br/>class = DrDoS_UDP>, fillcolor="#f6f0b7"] ;
373 -> 377 ;
378 [label=<Avg Packet Size &le; 311.25<br/>entropy = 0.922<br/>samples = 0.0%<br/>value = [0.0, 0.1, 0.0, 0.0, 0.0, 0.8, 0.1, 0.0, 0.0, 0.0<br/>0.0, 0.0]<br/>class = DrDoS_DNS>, fillcolor="#65ebe0"] ;
377 -> 378 ;
379 [label=<entropy = 0.918<br/>samples = 0.0%<br/>value = [0.0, 0.333, 0.0, 0.0, 0.0, 0.667, 0.0, 0.0, 0.0, 0.0<br/>0.0, 0.0]<br/>class = DrDoS_DNS>, fillcolor="#9cf2eb"] ;
378 -> 379 ;
380 [label=<Flow Bytes/s &le; 8812500.0<br/>entropy = 0.592<br/>samples = 0.0%<br/>value = [0.0, 0.0, 0.0, 0.0, 0.0, 0.857, 0.143, 0.0, 0.0, 0.0<br/>0.0, 0.0]<br/>class = DrDoS_DNS>, fillcolor="#5ae9de"] ;
378 -> 380 ;
381 [label=<entropy = 0.0<br/>samples = 0.0%<br/>value = [0.0, 0.0, 0.0, 0.0, 0.0, 1.0, 0.0, 0.0, 0.0, 0.0<br/>0.0, 0.0]<br/>class = DrDoS_DNS>, fillcolor="#39e5d7"] ;
380 -> 381 ;
382 [label=<entropy = 0.811<br/>samples = 0.0%<br/>value = [0.0, 0.0, 0.0, 0.0, 0.0, 0.75, 0.25, 0.0, 0.0, 0.0<br/>0.0, 0.0]<br/>class = DrDoS_DNS>, fillcolor="#7beee4"] ;
380 -> 382 ;
383 [label=<Fwd Header Length &le; -1062718977.0<br/>entropy = 0.854<br/>samples = 0.0%<br/>value = [0.0, 0.721, 0.0, 0.0, 0.0, 0.279, 0.0, 0.0, 0.0, 0.0<br/>0.0, 0.0]<br/>class = DrDoS_UDP>, fillcolor="#efe686"] ;
377 -> 383 ;
384 [label=<entropy = 0.0<br/>samples = 0.0%<br/>value = [0.0, 0.0, 0.0, 0.0, 0.0, 1.0, 0.0, 0.0, 0.0, 0.0<br/>0.0, 0.0]<br/>class = DrDoS_DNS>, fillcolor="#39e5d7"] ;
383 -> 384 ;
385 [label=<Avg Packet Size &le; 547.5<br/>entropy = 0.83<br/>samples = 0.0%<br/>value = [0.0, 0.738, 0.0, 0.0, 0.0, 0.262, 0.0, 0.0, 0.0, 0.0<br/>0.0, 0.0]<br/>class = DrDoS_UDP>, fillcolor="#eee57f"] ;
383 -> 385 ;
386 [label=<Fwd Packet Length Max &le; 284.5<br/>entropy = 0.602<br/>samples = 0.0%<br/>value = [0.0, 0.853, 0.0, 0.0, 0.0, 0.147, 0.0, 0.0, 0.0, 0.0<br/>0.0, 0.0]<br/>class = DrDoS_UDP>, fillcolor="#e9de5b"] ;
385 -> 386 ;
387 [label=<entropy = 0.874<br/>samples = 0.0%<br/>value = [0.0, 0.706, 0.0, 0.0, 0.0, 0.294, 0.0, 0.0, 0.0, 0.0<br/>0.0, 0.0]<br/>class = DrDoS_UDP>, fillcolor="#f0e88b"] ;
386 -> 387 ;
388 [label=<entropy = 0.0<br/>samples = 0.0%<br/>value = [0.0, 1.0, 0.0, 0.0, 0.0, 0.0, 0.0, 0.0, 0.0, 0.0<br/>0.0, 0.0]<br/>class = DrDoS_UDP>, fillcolor="#e5d739"] ;
386 -> 388 ;
389 [label=<Avg Packet Size &le; 560.25<br/>entropy = 0.811<br/>samples = 0.0%<br/>value = [0.0, 0.25, 0.0, 0.0, 0.0, 0.75, 0.0, 0.0, 0.0, 0.0<br/>0.0, 0.0]<br/>class = DrDoS_DNS>, fillcolor="#7beee4"] ;
385 -> 389 ;
390 [label=<entropy = 0.0<br/>samples = 0.0%<br/>value = [0.0, 0.0, 0.0, 0.0, 0.0, 1.0, 0.0, 0.0, 0.0, 0.0<br/>0.0, 0.0]<br/>class = DrDoS_DNS>, fillcolor="#39e5d7"] ;
389 -> 390 ;
391 [label=<entropy = 0.971<br/>samples = 0.0%<br/>value = [0.0, 0.4, 0.0, 0.0, 0.0, 0.6, 0.0, 0.0, 0.0, 0.0<br/>0.0, 0.0]<br/>class = DrDoS_DNS>, fillcolor="#bdf6f2"] ;
389 -> 391 ;
392 [label=<Fwd IAT Total &le; 47.5<br/>entropy = 0.985<br/>samples = 0.1%<br/>value = [0.006, 0.639, 0.0, 0.0, 0.0, 0.356, 0.0, 0.0, 0.0<br/>0.0, 0.0, 0.0]<br/>class = DrDoS_UDP>, fillcolor="#f4eda8"] ;
310 -> 392 ;
393 [label=<Flow Bytes/s &le; 5234042.5<br/>entropy = 0.967<br/>samples = 0.1%<br/>value = [0.009, 0.675, 0.0, 0.0, 0.0, 0.316, 0.0, 0.0, 0.0<br/>0.0, 0.0, 0.0]<br/>class = DrDoS_UDP>, fillcolor="#f1ea97"] ;
392 -> 393 ;
394 [label=<Packet Length Min &le; 76.5<br/>entropy = 0.196<br/>samples = 0.0%<br/>value = [0.03, 0.97, 0.0, 0.0, 0.0, 0.0, 0.0, 0.0, 0.0, 0.0<br/>0.0, 0.0]<br/>class = DrDoS_UDP>, fillcolor="#e6d83f"] ;
393 -> 394 ;
395 [label=<entropy = 0.0<br/>samples = 0.0%<br/>value = [0.0, 1.0, 0.0, 0.0, 0.0, 0.0, 0.0, 0.0, 0.0, 0.0<br/>0.0, 0.0]<br/>class = DrDoS_UDP>, fillcolor="#e5d739"] ;
394 -> 395 ;
396 [label=<Flow IAT Mean &le; 45.5<br/>entropy = 0.65<br/>samples = 0.0%<br/>value = [0.167, 0.833, 0.0, 0.0, 0.0, 0.0, 0.0, 0.0, 0.0, 0.0<br/>0.0, 0.0]<br/>class = DrDoS_UDP>, fillcolor="#eadf61"] ;
394 -> 396 ;
397 [label=<entropy = 0.0<br/>samples = 0.0%<br/>value = [0.0, 1.0, 0.0, 0.0, 0.0, 0.0, 0.0, 0.0, 0.0, 0.0<br/>0.0, 0.0]<br/>class = DrDoS_UDP>, fillcolor="#e5d739"] ;
396 -> 397 ;
398 [label=<entropy = 0.918<br/>samples = 0.0%<br/>value = [0.333, 0.667, 0.0, 0.0, 0.0, 0.0, 0.0, 0.0, 0.0, 0.0<br/>0.0, 0.0]<br/>class = DrDoS_UDP>, fillcolor="#f2eb9c"] ;
396 -> 398 ;
399 [label=<Fwd Seg Size Min &le; 26.0<br/>entropy = 0.991<br/>samples = 0.0%<br/>value = [0.0, 0.556, 0.0, 0.0, 0.0, 0.444, 0.0, 0.0, 0.0, 0.0<br/>0.0, 0.0]<br/>class = DrDoS_UDP>, fillcolor="#faf7d7"] ;
393 -> 399 ;
400 [label=<Fwd IAT Total &le; 44.5<br/>entropy = 0.965<br/>samples = 0.0%<br/>value = [0.0, 0.61, 0.0, 0.0, 0.0, 0.39, 0.0, 0.0, 0.0, 0.0<br/>0.0, 0.0]<br/>class = DrDoS_UDP>, fillcolor="#f6f1b8"] ;
399 -> 400 ;
401 [label=<Fwd IAT Mean &le; 43.5<br/>entropy = 0.961<br/>samples = 0.0%<br/>value = [0.0, 0.385, 0.0, 0.0, 0.0, 0.615, 0.0, 0.0, 0.0, 0.0<br/>0.0, 0.0]<br/>class = DrDoS_DNS>, fillcolor="#b5f5f0"] ;
400 -> 401 ;
402 [label=<Fwd IAT Min &le; 42.5<br/>entropy = 0.863<br/>samples = 0.0%<br/>value = [0.0, 0.286, 0.0, 0.0, 0.0, 0.714, 0.0, 0.0, 0.0, 0.0<br/>0.0, 0.0]<br/>class = DrDoS_DNS>, fillcolor="#88efe7"] ;
401 -> 402 ;
403 [label=<entropy = 1.0<br/>samples = 0.0%<br/>value = [0.0, 0.5, 0.0, 0.0, 0.0, 0.5, 0.0, 0.0, 0.0, 0.0<br/>0.0, 0.0]<br/>class = DrDoS_UDP>, fillcolor="#ffffff"] ;
402 -> 403 ;
404 [label=<entropy = 0.0<br/>samples = 0.0%<br/>value = [0.0, 0.0, 0.0, 0.0, 0.0, 1.0, 0.0, 0.0, 0.0, 0.0<br/>0.0, 0.0]<br/>class = DrDoS_DNS>, fillcolor="#39e5d7"] ;
402 -> 404 ;
405 [label=<Packet Length Min &le; 187.5<br/>entropy = 1.0<br/>samples = 0.0%<br/>value = [0.0, 0.5, 0.0, 0.0, 0.0, 0.5, 0.0, 0.0, 0.0, 0.0<br/>0.0, 0.0]<br/>class = DrDoS_UDP>, fillcolor="#ffffff"] ;
401 -> 405 ;
406 [label=<entropy = 0.0<br/>samples = 0.0%<br/>value = [0.0, 1.0, 0.0, 0.0, 0.0, 0.0, 0.0, 0.0, 0.0, 0.0<br/>0.0, 0.0]<br/>class = DrDoS_UDP>, fillcolor="#e5d739"] ;
405 -> 406 ;
407 [label=<Fwd Packet Length Max &le; 242.0<br/>entropy = 0.971<br/>samples = 0.0%<br/>value = [0.0, 0.4, 0.0, 0.0, 0.0, 0.6, 0.0, 0.0, 0.0, 0.0<br/>0.0, 0.0]<br/>class = DrDoS_DNS>, fillcolor="#bdf6f2"] ;
405 -> 407 ;
408 [label=<entropy = 0.0<br/>samples = 0.0%<br/>value = [0.0, 0.0, 0.0, 0.0, 0.0, 1.0, 0.0, 0.0, 0.0, 0.0<br/>0.0, 0.0]<br/>class = DrDoS_DNS>, fillcolor="#39e5d7"] ;
407 -> 408 ;
409 [label=<entropy = 0.918<br/>samples = 0.0%<br/>value = [0.0, 0.667, 0.0, 0.0, 0.0, 0.333, 0.0, 0.0, 0.0, 0.0<br/>0.0, 0.0]<br/>class = DrDoS_UDP>, fillcolor="#f2eb9c"] ;
407 -> 409 ;
410 [label=<Avg Packet Size &le; 510.0<br/>entropy = 0.911<br/>samples = 0.0%<br/>value = [0.0, 0.674, 0.0, 0.0, 0.0, 0.326, 0.0, 0.0, 0.0, 0.0<br/>0.0, 0.0]<br/>class = DrDoS_UDP>, fillcolor="#f2ea99"] ;
400 -> 410 ;
411 [label=<Flow Bytes/s &le; 6446808.5<br/>entropy = 0.961<br/>samples = 0.0%<br/>value = [0.0, 0.615, 0.0, 0.0, 0.0, 0.385, 0.0, 0.0, 0.0, 0.0<br/>0.0, 0.0]<br/>class = DrDoS_UDP>, fillcolor="#f5f0b5"] ;
410 -> 411 ;
412 [label=<entropy = 0.0<br/>samples = 0.0%<br/>value = [0.0, 0.0, 0.0, 0.0, 0.0, 1.0, 0.0, 0.0, 0.0, 0.0<br/>0.0, 0.0]<br/>class = DrDoS_DNS>, fillcolor="#39e5d7"] ;
411 -> 412 ;
413 [label=<Avg Packet Size &le; 258.75<br/>entropy = 0.935<br/>samples = 0.0%<br/>value = [0.0, 0.649, 0.0, 0.0, 0.0, 0.351, 0.0, 0.0, 0.0, 0.0<br/>0.0, 0.0]<br/>class = DrDoS_UDP>, fillcolor="#f3eda4"] ;
411 -> 413 ;
414 [label=<entropy = 0.0<br/>samples = 0.0%<br/>value = [0.0, 1.0, 0.0, 0.0, 0.0, 0.0, 0.0, 0.0, 0.0, 0.0<br/>0.0, 0.0]<br/>class = DrDoS_UDP>, fillcolor="#e5d739"] ;
413 -> 414 ;
415 [label=<entropy = 0.974<br/>samples = 0.0%<br/>value = [0.0, 0.594, 0.0, 0.0, 0.0, 0.406, 0.0, 0.0, 0.0, 0.0<br/>0.0, 0.0]<br/>class = DrDoS_UDP>, fillcolor="#f7f2c0"] ;
413 -> 415 ;
416 [label=<entropy = 0.0<br/>samples = 0.0%<br/>value = [0.0, 1.0, 0.0, 0.0, 0.0, 0.0, 0.0, 0.0, 0.0, 0.0<br/>0.0, 0.0]<br/>class = DrDoS_UDP>, fillcolor="#e5d739"] ;
410 -> 416 ;
417 [label=<Flow IAT Mean &le; 46.5<br/>entropy = 0.976<br/>samples = 0.0%<br/>value = [0.0, 0.409, 0.0, 0.0, 0.0, 0.591, 0.0, 0.0, 0.0, 0.0<br/>0.0, 0.0]<br/>class = DrDoS_DNS>, fillcolor="#c2f7f3"] ;
399 -> 417 ;
418 [label=<Fwd IAT Min &le; 45.5<br/>entropy = 0.863<br/>samples = 0.0%<br/>value = [0.0, 0.286, 0.0, 0.0, 0.0, 0.714, 0.0, 0.0, 0.0, 0.0<br/>0.0, 0.0]<br/>class = DrDoS_DNS>, fillcolor="#88efe7"] ;
417 -> 418 ;
419 [label=<Fwd IAT Total &le; 44.5<br/>entropy = 0.918<br/>samples = 0.0%<br/>value = [0.0, 0.333, 0.0, 0.0, 0.0, 0.667, 0.0, 0.0, 0.0, 0.0<br/>0.0, 0.0]<br/>class = DrDoS_DNS>, fillcolor="#9cf2eb"] ;
418 -> 419 ;
420 [label=<Fwd Packet Length Max &le; 320.0<br/>entropy = 0.722<br/>samples = 0.0%<br/>value = [0.0, 0.2, 0.0, 0.0, 0.0, 0.8, 0.0, 0.0, 0.0, 0.0<br/>0.0, 0.0]<br/>class = DrDoS_DNS>, fillcolor="#6aece1"] ;
419 -> 420 ;
421 [label=<entropy = 0.0<br/>samples = 0.0%<br/>value = [0.0, 0.0, 0.0, 0.0, 0.0, 1.0, 0.0, 0.0, 0.0, 0.0<br/>0.0, 0.0]<br/>class = DrDoS_DNS>, fillcolor="#39e5d7"] ;
420 -> 421 ;
422 [label=<entropy = 0.0<br/>samples = 0.0%<br/>value = [0.0, 1.0, 0.0, 0.0, 0.0, 0.0, 0.0, 0.0, 0.0, 0.0<br/>0.0, 0.0]<br/>class = DrDoS_UDP>, fillcolor="#e5d739"] ;
420 -> 422 ;
423 [label=<Avg Packet Size &le; 408.75<br/>entropy = 0.985<br/>samples = 0.0%<br/>value = [0.0, 0.429, 0.0, 0.0, 0.0, 0.571, 0.0, 0.0, 0.0, 0.0<br/>0.0, 0.0]<br/>class = DrDoS_DNS>, fillcolor="#cef8f5"] ;
419 -> 423 ;
424 [label=<entropy = 0.0<br/>samples = 0.0%<br/>value = [0.0, 0.0, 0.0, 0.0, 0.0, 1.0, 0.0, 0.0, 0.0, 0.0<br/>0.0, 0.0]<br/>class = DrDoS_DNS>, fillcolor="#39e5d7"] ;
423 -> 424 ;
425 [label=<entropy = 0.0<br/>samples = 0.0%<br/>value = [0.0, 1.0, 0.0, 0.0, 0.0, 0.0, 0.0, 0.0, 0.0, 0.0<br/>0.0, 0.0]<br/>class = DrDoS_UDP>, fillcolor="#e5d739"] ;
423 -> 425 ;
426 [label=<entropy = 0.0<br/>samples = 0.0%<br/>value = [0.0, 0.0, 0.0, 0.0, 0.0, 1.0, 0.0, 0.0, 0.0, 0.0<br/>0.0, 0.0]<br/>class = DrDoS_DNS>, fillcolor="#39e5d7"] ;
418 -> 426 ;
427 [label=<Fwd Seg Size Min &le; 34.5<br/>entropy = 0.954<br/>samples = 0.0%<br/>value = [0.0, 0.625, 0.0, 0.0, 0.0, 0.375, 0.0, 0.0, 0.0, 0.0<br/>0.0, 0.0]<br/>class = DrDoS_UDP>, fillcolor="#f5efb0"] ;
417 -> 427 ;
428 [label=<Fwd Packet Length Max &le; 308.0<br/>entropy = 0.985<br/>samples = 0.0%<br/>value = [0.0, 0.571, 0.0, 0.0, 0.0, 0.429, 0.0, 0.0, 0.0, 0.0<br/>0.0, 0.0]<br/>class = DrDoS_UDP>, fillcolor="#f8f5ce"] ;
427 -> 428 ;
429 [label=<entropy = 0.0<br/>samples = 0.0%<br/>value = [0.0, 0.0, 0.0, 0.0, 0.0, 1.0, 0.0, 0.0, 0.0, 0.0<br/>0.0, 0.0]<br/>class = DrDoS_DNS>, fillcolor="#39e5d7"] ;
428 -> 429 ;
430 [label=<Avg Packet Size &le; 502.5<br/>entropy = 0.722<br/>samples = 0.0%<br/>value = [0.0, 0.8, 0.0, 0.0, 0.0, 0.2, 0.0, 0.0, 0.0, 0.0<br/>0.0, 0.0]<br/>class = DrDoS_UDP>, fillcolor="#ece16a"] ;
428 -> 430 ;
431 [label=<entropy = 0.0<br/>samples = 0.0%<br/>value = [0.0, 1.0, 0.0, 0.0, 0.0, 0.0, 0.0, 0.0, 0.0, 0.0<br/>0.0, 0.0]<br/>class = DrDoS_UDP>, fillcolor="#e5d739"] ;
430 -> 431 ;
432 [label=<entropy = 0.918<br/>samples = 0.0%<br/>value = [0.0, 0.667, 0.0, 0.0, 0.0, 0.333, 0.0, 0.0, 0.0, 0.0<br/>0.0, 0.0]<br/>class = DrDoS_UDP>, fillcolor="#f2eb9c"] ;
430 -> 432 ;
433 [label=<entropy = 0.0<br/>samples = 0.0%<br/>value = [0.0, 1.0, 0.0, 0.0, 0.0, 0.0, 0.0, 0.0, 0.0, 0.0<br/>0.0, 0.0]<br/>class = DrDoS_UDP>, fillcolor="#e5d739"] ;
427 -> 433 ;
434 [label=<Fwd IAT Mean &le; 48.5<br/>entropy = 0.983<br/>samples = 0.0%<br/>value = [0.0, 0.576, 0.0, 0.0, 0.0, 0.424, 0.0, 0.0, 0.0, 0.0<br/>0.0, 0.0]<br/>class = DrDoS_UDP>, fillcolor="#f8f4cb"] ;
392 -> 434 ;
435 [label=<Fwd Header Length &le; 283.0<br/>entropy = 0.954<br/>samples = 0.0%<br/>value = [0.0, 0.625, 0.0, 0.0, 0.0, 0.375, 0.0, 0.0, 0.0, 0.0<br/>0.0, 0.0]<br/>class = DrDoS_UDP>, fillcolor="#f5efb0"] ;
434 -> 435 ;
436 [label=<Packet Length Min &le; 89.5<br/>entropy = 0.963<br/>samples = 0.0%<br/>value = [0.0, 0.613, 0.0, 0.0, 0.0, 0.387, 0.0, 0.0, 0.0, 0.0<br/>0.0, 0.0]<br/>class = DrDoS_UDP>, fillcolor="#f5f0b6"] ;
435 -> 436 ;
437 [label=<entropy = 0.0<br/>samples = 0.0%<br/>value = [0.0, 1.0, 0.0, 0.0, 0.0, 0.0, 0.0, 0.0, 0.0, 0.0<br/>0.0, 0.0]<br/>class = DrDoS_UDP>, fillcolor="#e5d739"] ;
436 -> 437 ;
438 [label=<Flow Bytes/s &le; 11187500.0<br/>entropy = 0.999<br/>samples = 0.0%<br/>value = [0.0, 0.478, 0.0, 0.0, 0.0, 0.522, 0.0, 0.0, 0.0, 0.0<br/>0.0, 0.0]<br/>class = DrDoS_DNS>, fillcolor="#effdfc"] ;
436 -> 438 ;
439 [label=<Flow Bytes/s &le; 9208333.5<br/>entropy = 0.811<br/>samples = 0.0%<br/>value = [0.0, 0.25, 0.0, 0.0, 0.0, 0.75, 0.0, 0.0, 0.0, 0.0<br/>0.0, 0.0]<br/>class = DrDoS_DNS>, fillcolor="#7beee4"] ;
438 -> 439 ;
440 [label=<Flow Bytes/s &le; 6666666.75<br/>entropy = 0.954<br/>samples = 0.0%<br/>value = [0.0, 0.375, 0.0, 0.0, 0.0, 0.625, 0.0, 0.0, 0.0, 0.0<br/>0.0, 0.0]<br/>class = DrDoS_DNS>, fillcolor="#b0f5ef"] ;
439 -> 440 ;
441 [label=<entropy = 0.0<br/>samples = 0.0%<br/>value = [0.0, 0.0, 0.0, 0.0, 0.0, 1.0, 0.0, 0.0, 0.0, 0.0<br/>0.0, 0.0]<br/>class = DrDoS_DNS>, fillcolor="#39e5d7"] ;
440 -> 441 ;
442 [label=<entropy = 1.0<br/>samples = 0.0%<br/>value = [0.0, 0.5, 0.0, 0.0, 0.0, 0.5, 0.0, 0.0, 0.0, 0.0<br/>0.0, 0.0]<br/>class = DrDoS_UDP>, fillcolor="#ffffff"] ;
440 -> 442 ;
443 [label=<entropy = 0.0<br/>samples = 0.0%<br/>value = [0.0, 0.0, 0.0, 0.0, 0.0, 1.0, 0.0, 0.0, 0.0, 0.0<br/>0.0, 0.0]<br/>class = DrDoS_DNS>, fillcolor="#39e5d7"] ;
439 -> 443 ;
444 [label=<Fwd Header Length &le; 52.0<br/>entropy = 0.845<br/>samples = 0.0%<br/>value = [0.0, 0.727, 0.0, 0.0, 0.0, 0.273, 0.0, 0.0, 0.0, 0.0<br/>0.0, 0.0]<br/>class = DrDoS_UDP>, fillcolor="#efe683"] ;
438 -> 444 ;
445 [label=<Packet Length Min &le; 382.5<br/>entropy = 0.918<br/>samples = 0.0%<br/>value = [0.0, 0.667, 0.0, 0.0, 0.0, 0.333, 0.0, 0.0, 0.0, 0.0<br/>0.0, 0.0]<br/>class = DrDoS_UDP>, fillcolor="#f2eb9c"] ;
444 -> 445 ;
446 [label=<entropy = 0.811<br/>samples = 0.0%<br/>value = [0.0, 0.75, 0.0, 0.0, 0.0, 0.25, 0.0, 0.0, 0.0, 0.0<br/>0.0, 0.0]<br/>class = DrDoS_UDP>, fillcolor="#eee47b"] ;
445 -> 446 ;
447 [label=<entropy = 0.0<br/>samples = 0.0%<br/>value = [0.0, 0.0, 0.0, 0.0, 0.0, 1.0, 0.0, 0.0, 0.0, 0.0<br/>0.0, 0.0]<br/>class = DrDoS_DNS>, fillcolor="#39e5d7"] ;
445 -> 447 ;
448 [label=<entropy = 0.0<br/>samples = 0.0%<br/>value = [0.0, 1.0, 0.0, 0.0, 0.0, 0.0, 0.0, 0.0, 0.0, 0.0<br/>0.0, 0.0]<br/>class = DrDoS_UDP>, fillcolor="#e5d739"] ;
444 -> 448 ;
449 [label=<entropy = 0.0<br/>samples = 0.0%<br/>value = [0.0, 1.0, 0.0, 0.0, 0.0, 0.0, 0.0, 0.0, 0.0, 0.0<br/>0.0, 0.0]<br/>class = DrDoS_UDP>, fillcolor="#e5d739"] ;
435 -> 449 ;
450 [label=<Flow Bytes/s &le; 5224489.75<br/>entropy = 0.998<br/>samples = 0.0%<br/>value = [0.0, 0.529, 0.0, 0.0, 0.0, 0.471, 0.0, 0.0, 0.0, 0.0<br/>0.0, 0.0]<br/>class = DrDoS_UDP>, fillcolor="#fcfbe9"] ;
434 -> 450 ;
451 [label=<entropy = 0.0<br/>samples = 0.0%<br/>value = [0.0, 1.0, 0.0, 0.0, 0.0, 0.0, 0.0, 0.0, 0.0, 0.0<br/>0.0, 0.0]<br/>class = DrDoS_UDP>, fillcolor="#e5d739"] ;
450 -> 451 ;
452 [label=<Packet Length Min &le; 347.0<br/>entropy = 0.975<br/>samples = 0.0%<br/>value = [0.0, 0.407, 0.0, 0.0, 0.0, 0.593, 0.0, 0.0, 0.0, 0.0<br/>0.0, 0.0]<br/>class = DrDoS_DNS>, fillcolor="#c1f7f2"] ;
450 -> 452 ;
453 [label=<Fwd Seg Size Min &le; 10.0<br/>entropy = 0.918<br/>samples = 0.0%<br/>value = [0.0, 0.333, 0.0, 0.0, 0.0, 0.667, 0.0, 0.0, 0.0, 0.0<br/>0.0, 0.0]<br/>class = DrDoS_DNS>, fillcolor="#9cf2eb"] ;
452 -> 453 ;
454 [label=<entropy = 0.0<br/>samples = 0.0%<br/>value = [0.0, 0.0, 0.0, 0.0, 0.0, 1.0, 0.0, 0.0, 0.0, 0.0<br/>0.0, 0.0]<br/>class = DrDoS_DNS>, fillcolor="#39e5d7"] ;
453 -> 454 ;
455 [label=<Fwd Seg Size Min &le; 26.0<br/>entropy = 0.946<br/>samples = 0.0%<br/>value = [0.0, 0.364, 0.0, 0.0, 0.0, 0.636, 0.0, 0.0, 0.0, 0.0<br/>0.0, 0.0]<br/>class = DrDoS_DNS>, fillcolor="#aaf4ee"] ;
453 -> 455 ;
456 [label=<Fwd Packet Length Max &le; 160.5<br/>entropy = 0.985<br/>samples = 0.0%<br/>value = [0.0, 0.429, 0.0, 0.0, 0.0, 0.571, 0.0, 0.0, 0.0, 0.0<br/>0.0, 0.0]<br/>class = DrDoS_DNS>, fillcolor="#cef8f5"] ;
455 -> 456 ;
457 [label=<entropy = 0.0<br/>samples = 0.0%<br/>value = [0.0, 0.0, 0.0, 0.0, 0.0, 1.0, 0.0, 0.0, 0.0, 0.0<br/>0.0, 0.0]<br/>class = DrDoS_DNS>, fillcolor="#39e5d7"] ;
456 -> 457 ;
458 [label=<entropy = 1.0<br/>samples = 0.0%<br/>value = [0.0, 0.5, 0.0, 0.0, 0.0, 0.5, 0.0, 0.0, 0.0, 0.0<br/>0.0, 0.0]<br/>class = DrDoS_UDP>, fillcolor="#ffffff"] ;
456 -> 458 ;
459 [label=<Packet Length Min &le; 199.0<br/>entropy = 0.811<br/>samples = 0.0%<br/>value = [0.0, 0.25, 0.0, 0.0, 0.0, 0.75, 0.0, 0.0, 0.0, 0.0<br/>0.0, 0.0]<br/>class = DrDoS_DNS>, fillcolor="#7beee4"] ;
455 -> 459 ;
460 [label=<entropy = 0.0<br/>samples = 0.0%<br/>value = [0.0, 1.0, 0.0, 0.0, 0.0, 0.0, 0.0, 0.0, 0.0, 0.0<br/>0.0, 0.0]<br/>class = DrDoS_UDP>, fillcolor="#e5d739"] ;
459 -> 460 ;
461 [label=<entropy = 0.0<br/>samples = 0.0%<br/>value = [0.0, 0.0, 0.0, 0.0, 0.0, 1.0, 0.0, 0.0, 0.0, 0.0<br/>0.0, 0.0]<br/>class = DrDoS_DNS>, fillcolor="#39e5d7"] ;
459 -> 461 ;
462 [label=<entropy = 0.0<br/>samples = 0.0%<br/>value = [0.0, 1.0, 0.0, 0.0, 0.0, 0.0, 0.0, 0.0, 0.0, 0.0<br/>0.0, 0.0]<br/>class = DrDoS_UDP>, fillcolor="#e5d739"] ;
452 -> 462 ;
463 [label=<Fwd Packet Length Max &le; 119.0<br/>entropy = 0.971<br/>samples = 0.1%<br/>value = [0.0, 0.4, 0.0, 0.0, 0.0, 0.6, 0.0, 0.0, 0.0, 0.0<br/>0.0, 0.0]<br/>class = DrDoS_DNS>, fillcolor="#bdf6f2"] ;
309 -> 463 ;
464 [label=<entropy = 0.0<br/>samples = 0.0%<br/>value = [0.0, 1.0, 0.0, 0.0, 0.0, 0.0, 0.0, 0.0, 0.0, 0.0<br/>0.0, 0.0]<br/>class = DrDoS_UDP>, fillcolor="#e5d739"] ;
463 -> 464 ;
465 [label=<Fwd IAT Mean &le; 51.5<br/>entropy = 0.729<br/>samples = 0.1%<br/>value = [0.0, 0.204, 0.0, 0.0, 0.0, 0.796, 0.0, 0.0, 0.0, 0.0<br/>0.0, 0.0]<br/>class = DrDoS_DNS>, fillcolor="#6cece1"] ;
463 -> 465 ;
466 [label=<Avg Packet Size &le; 373.5<br/>entropy = 0.847<br/>samples = 0.0%<br/>value = [0.0, 0.274, 0.0, 0.0, 0.0, 0.726, 0.0, 0.0, 0.0, 0.0<br/>0.0, 0.0]<br/>class = DrDoS_DNS>, fillcolor="#84efe6"] ;
465 -> 466 ;
467 [label=<Fwd Seg Size Min &le; 17.0<br/>entropy = 0.433<br/>samples = 0.0%<br/>value = [0.0, 0.089, 0.0, 0.0, 0.0, 0.911, 0.0, 0.0, 0.0, 0.0<br/>0.0, 0.0]<br/>class = DrDoS_DNS>, fillcolor="#4ce8db"] ;
466 -> 467 ;
468 [label=<Packet Length Min &le; 190.0<br/>entropy = 0.579<br/>samples = 0.0%<br/>value = [0.0, 0.138, 0.0, 0.0, 0.0, 0.862, 0.0, 0.0, 0.0, 0.0<br/>0.0, 0.0]<br/>class = DrDoS_DNS>, fillcolor="#59e9dd"] ;
467 -> 468 ;
469 [label=<Fwd IAT Min &le; 50.5<br/>entropy = 0.946<br/>samples = 0.0%<br/>value = [0.0, 0.364, 0.0, 0.0, 0.0, 0.636, 0.0, 0.0, 0.0, 0.0<br/>0.0, 0.0]<br/>class = DrDoS_DNS>, fillcolor="#aaf4ee"] ;
468 -> 469 ;
470 [label=<Fwd Packet Length Max &le; 180.5<br/>entropy = 0.863<br/>samples = 0.0%<br/>value = [0.0, 0.286, 0.0, 0.0, 0.0, 0.714, 0.0, 0.0, 0.0, 0.0<br/>0.0, 0.0]<br/>class = DrDoS_DNS>, fillcolor="#88efe7"] ;
469 -> 470 ;
471 [label=<entropy = 0.0<br/>samples = 0.0%<br/>value = [0.0, 0.0, 0.0, 0.0, 0.0, 1.0, 0.0, 0.0, 0.0, 0.0<br/>0.0, 0.0]<br/>class = DrDoS_DNS>, fillcolor="#39e5d7"] ;
470 -> 471 ;
472 [label=<entropy = 0.0<br/>samples = 0.0%<br/>value = [0.0, 1.0, 0.0, 0.0, 0.0, 0.0, 0.0, 0.0, 0.0, 0.0<br/>0.0, 0.0]<br/>class = DrDoS_UDP>, fillcolor="#e5d739"] ;
470 -> 472 ;
473 [label=<entropy = 1.0<br/>samples = 0.0%<br/>value = [0.0, 0.5, 0.0, 0.0, 0.0, 0.5, 0.0, 0.0, 0.0, 0.0<br/>0.0, 0.0]<br/>class = DrDoS_UDP>, fillcolor="#ffffff"] ;
469 -> 473 ;
474 [label=<entropy = 0.0<br/>samples = 0.0%<br/>value = [0.0, 0.0, 0.0, 0.0, 0.0, 1.0, 0.0, 0.0, 0.0, 0.0<br/>0.0, 0.0]<br/>class = DrDoS_DNS>, fillcolor="#39e5d7"] ;
468 -> 474 ;
475 [label=<entropy = 0.0<br/>samples = 0.0%<br/>value = [0.0, 0.0, 0.0, 0.0, 0.0, 1.0, 0.0, 0.0, 0.0, 0.0<br/>0.0, 0.0]<br/>class = DrDoS_DNS>, fillcolor="#39e5d7"] ;
467 -> 475 ;
476 [label=<Fwd Header Length &le; -1.0<br/>entropy = 0.985<br/>samples = 0.0%<br/>value = [0.0, 0.571, 0.0, 0.0, 0.0, 0.429, 0.0, 0.0, 0.0, 0.0<br/>0.0, 0.0]<br/>class = DrDoS_UDP>, fillcolor="#f8f5ce"] ;
466 -> 476 ;
477 [label=<entropy = 0.0<br/>samples = 0.0%<br/>value = [0.0, 1.0, 0.0, 0.0, 0.0, 0.0, 0.0, 0.0, 0.0, 0.0<br/>0.0, 0.0]<br/>class = DrDoS_UDP>, fillcolor="#e5d739"] ;
476 -> 477 ;
478 [label=<Flow IAT Mean &le; 50.5<br/>entropy = 0.994<br/>samples = 0.0%<br/>value = [0.0, 0.455, 0.0, 0.0, 0.0, 0.545, 0.0, 0.0, 0.0, 0.0<br/>0.0, 0.0]<br/>class = DrDoS_DNS>, fillcolor="#defbf8"] ;
476 -> 478 ;
479 [label=<Avg Packet Size &le; 504.0<br/>entropy = 0.722<br/>samples = 0.0%<br/>value = [0.0, 0.2, 0.0, 0.0, 0.0, 0.8, 0.0, 0.0, 0.0, 0.0<br/>0.0, 0.0]<br/>class = DrDoS_DNS>, fillcolor="#6aece1"] ;
478 -> 479 ;
480 [label=<Packet Length Min &le; 314.0<br/>entropy = 0.503<br/>samples = 0.0%<br/>value = [0.0, 0.111, 0.0, 0.0, 0.0, 0.889, 0.0, 0.0, 0.0, 0.0<br/>0.0, 0.0]<br/>class = DrDoS_DNS>, fillcolor="#52e8dc"] ;
479 -> 480 ;
481 [label=<entropy = 0.811<br/>samples = 0.0%<br/>value = [0.0, 0.25, 0.0, 0.0, 0.0, 0.75, 0.0, 0.0, 0.0, 0.0<br/>0.0, 0.0]<br/>class = DrDoS_DNS>, fillcolor="#7beee4"] ;
480 -> 481 ;
482 [label=<entropy = 0.0<br/>samples = 0.0%<br/>value = [0.0, 0.0, 0.0, 0.0, 0.0, 1.0, 0.0, 0.0, 0.0, 0.0<br/>0.0, 0.0]<br/>class = DrDoS_DNS>, fillcolor="#39e5d7"] ;
480 -> 482 ;
483 [label=<entropy = 0.0<br/>samples = 0.0%<br/>value = [0.0, 1.0, 0.0, 0.0, 0.0, 0.0, 0.0, 0.0, 0.0, 0.0<br/>0.0, 0.0]<br/>class = DrDoS_UDP>, fillcolor="#e5d739"] ;
479 -> 483 ;
484 [label=<Fwd Packet Length Max &le; 317.0<br/>entropy = 0.918<br/>samples = 0.0%<br/>value = [0.0, 0.667, 0.0, 0.0, 0.0, 0.333, 0.0, 0.0, 0.0, 0.0<br/>0.0, 0.0]<br/>class = DrDoS_UDP>, fillcolor="#f2eb9c"] ;
478 -> 484 ;
485 [label=<entropy = 0.0<br/>samples = 0.0%<br/>value = [0.0, 1.0, 0.0, 0.0, 0.0, 0.0, 0.0, 0.0, 0.0, 0.0<br/>0.0, 0.0]<br/>class = DrDoS_UDP>, fillcolor="#e5d739"] ;
484 -> 485 ;
486 [label=<Packet Length Min &le; 325.0<br/>entropy = 0.985<br/>samples = 0.0%<br/>value = [0.0, 0.429, 0.0, 0.0, 0.0, 0.571, 0.0, 0.0, 0.0, 0.0<br/>0.0, 0.0]<br/>class = DrDoS_DNS>, fillcolor="#cef8f5"] ;
484 -> 486 ;
487 [label=<entropy = 0.0<br/>samples = 0.0%<br/>value = [0.0, 0.0, 0.0, 0.0, 0.0, 1.0, 0.0, 0.0, 0.0, 0.0<br/>0.0, 0.0]<br/>class = DrDoS_DNS>, fillcolor="#39e5d7"] ;
486 -> 487 ;
488 [label=<entropy = 0.0<br/>samples = 0.0%<br/>value = [0.0, 1.0, 0.0, 0.0, 0.0, 0.0, 0.0, 0.0, 0.0, 0.0<br/>0.0, 0.0]<br/>class = DrDoS_UDP>, fillcolor="#e5d739"] ;
486 -> 488 ;
489 [label=<Flow Duration &le; 52.5<br/>entropy = 0.384<br/>samples = 0.0%<br/>value = [0.0, 0.075, 0.0, 0.0, 0.0, 0.925, 0.0, 0.0, 0.0, 0.0<br/>0.0, 0.0]<br/>class = DrDoS_DNS>, fillcolor="#49e7da"] ;
465 -> 489 ;
490 [label=<Avg Packet Size &le; 480.0<br/>entropy = 0.381<br/>samples = 0.0%<br/>value = [0.0, 0.074, 0.0, 0.0, 0.0, 0.926, 0.0, 0.0, 0.0, 0.0<br/>0.0, 0.0]<br/>class = DrDoS_DNS>, fillcolor="#49e7da"] ;
489 -> 490 ;
491 [label=<entropy = 0.0<br/>samples = 0.0%<br/>value = [0.0, 0.0, 0.0, 0.0, 0.0, 1.0, 0.0, 0.0, 0.0, 0.0<br/>0.0, 0.0]<br/>class = DrDoS_DNS>, fillcolor="#39e5d7"] ;
490 -> 491 ;
492 [label=<entropy = 0.0<br/>samples = 0.0%<br/>value = [0.0, 1.0, 0.0, 0.0, 0.0, 0.0, 0.0, 0.0, 0.0, 0.0<br/>0.0, 0.0]<br/>class = DrDoS_UDP>, fillcolor="#e5d739"] ;
490 -> 492 ;
493 [label=<Fwd Seg Size Min &le; 11.0<br/>entropy = 0.391<br/>samples = 0.0%<br/>value = [0.0, 0.077, 0.0, 0.0, 0.0, 0.923, 0.0, 0.0, 0.0, 0.0<br/>0.0, 0.0]<br/>class = DrDoS_DNS>, fillcolor="#49e7da"] ;
489 -> 493 ;
494 [label=<entropy = 0.0<br/>samples = 0.0%<br/>value = [0.0, 0.0, 0.0, 0.0, 0.0, 1.0, 0.0, 0.0, 0.0, 0.0<br/>0.0, 0.0]<br/>class = DrDoS_DNS>, fillcolor="#39e5d7"] ;
493 -> 494 ;
495 [label=<Flow Bytes/s &le; 7207547.25<br/>entropy = 0.592<br/>samples = 0.0%<br/>value = [0.0, 0.143, 0.0, 0.0, 0.0, 0.857, 0.0, 0.0, 0.0, 0.0<br/>0.0, 0.0]<br/>class = DrDoS_DNS>, fillcolor="#5ae9de"] ;
493 -> 495 ;
496 [label=<entropy = 0.0<br/>samples = 0.0%<br/>value = [0.0, 1.0, 0.0, 0.0, 0.0, 0.0, 0.0, 0.0, 0.0, 0.0<br/>0.0, 0.0]<br/>class = DrDoS_UDP>, fillcolor="#e5d739"] ;
495 -> 496 ;
497 [label=<entropy = 0.0<br/>samples = 0.0%<br/>value = [0.0, 0.0, 0.0, 0.0, 0.0, 1.0, 0.0, 0.0, 0.0, 0.0<br/>0.0, 0.0]<br/>class = DrDoS_DNS>, fillcolor="#39e5d7"] ;
